params = {
    "class_ids": [0, 0, 0, 0, 0, 0, 0, 0, 0, 0, 0, 0, 0, 0, 0, 0, 0, 0, 0, 0, 0, 1, 1, 1, 1, 1, 1, 1, 1, 1, 1, 1, 1, 1, 1, 1, 1, 1, 1, 1, 1, 2, 2, 2, 2, 2, 2, 2, 2, 2, 2, 2, 2, 2, 2, 2, 2, 3, 3, 3, 3, 3, 3, 3, 3, 3, 3, 3, 3, 3, 3, 3, 3, 3, 4, 4, 4, 4, 4, 4, 4, 4, 4, 4, 4, 0, 0, 0, 0, 0, 0, 0, 0, 0, 0, 0, 0, 0, 0, 0, 0, 1, 1, 1, 1, 1, 1, 1, 1, 1, 1, 1, 1, 1, 1, 1, 1, 1, 1, 1, 2, 2, 2, 2, 2, 2, 2, 2, 2, 2, 2, 2, 2, 2, 2, 2, 2, 3, 3, 3, 3, 3, 3, 3, 3, 3, 3, 3, 3, 3, 3, 3, 3, 3, 3, 3, 4, 4, 4, 4, 4, 4, 4, 4, 4, 4, 4, 4, 4, 0, 0, 0, 0, 0, 0, 0, 0, 0, 0, 0, 0, 0, 0, 0, 0, 0, 0, 0, 1, 1, 1, 1, 1, 1, 1, 1, 1, 1, 1, 1, 1, 1, 1, 1, 1, 1, 1, 2, 2, 2, 2, 2, 2, 2, 2, 2, 2, 2, 2, 2, 2, 2, 2, 2, 3, 3, 3, 3, 3, 3, 3, 3, 3, 3, 3, 3, 3, 3, 3, 3, 3, 3, 3, 3, 4, 4, 4, 4, 4, 4, 4, 4, 4, 4, 4, 4, 4, 0, 0, 0, 0, 0, 0, 0, 0, 0, 0, 0, 0, 0, 0, 0, 0, 0, 0, 0, 0, 0, 1, 1, 1, 1, 1, 1, 1, 1, 1, 1, 1, 1, 1, 1, 1, 1, 1, 1, 1, 2, 2, 2, 2, 2, 2, 2, 2, 2, 2, 2, 2, 2, 2, 2, 2, 2, 2, 3, 3, 3, 3, 3, 3, 3, 3, 3, 3, 3, 3, 3, 3, 3, 3, 3, 3, 3, 3, 4, 4, 4, 4, 4, 4, 4, 4, 4, 4, 4, 4, 4, 0, 0, 0, 0, 0, 0, 0, 0, 0, 0, 0, 0, 0, 0, 0, 0, 0, 0, 0, 0, 0, 0, 1, 1, 1, 1, 1, 1, 1, 1, 1, 1, 1, 1, 1, 2, 2, 2, 2, 2, 2, 2, 2, 2, 2, 2, 2, 2, 2, 2, 2, 3, 3, 3, 3, 3, 3, 3, 3, 3, 3, 3, 3, 3, 3, 3, 3, 3, 3, 4, 4, 4, 4, 4, 4, 4, 4, 4, 4, 4, 4, 4, 0, 0, 0, 0, 0, 0, 0, 0, 0, 0, 0, 0, 0, 0, 0, 0, 0, 0, 0, 0, 0, 0, 0, 0, 0, 0, 1, 1, 1, 1, 1, 1, 1, 1, 1, 1, 1, 1, 1, 2, 2, 2, 2, 2, 2, 2, 2, 2, 2, 2, 2, 2, 2, 2, 2, 2, 2, 2, 3, 3, 3, 3, 3, 3, 3, 3, 3, 3, 3, 3, 3, 3, 3, 3, 3, 3, 3, 4, 4, 4, 4, 4, 4, 4, 4, 4, 4, 4, 4, 4, 0, 0, 0, 0, 0, 0, 0, 0, 0, 0, 0, 0, 0, 0, 0, 0, 0, 0, 0, 0, 0, 0, 0, 0, 1, 1, 1, 1, 1, 1, 1, 1, 1, 1, 1, 1, 1, 1, 1, 1, 1, 1, 1, 1, 1, 1, 2, 2, 2, 2, 2, 2, 2, 2, 2, 2, 2, 2, 2, 2, 2, 2, 2, 2, 3, 3, 3, 3, 3, 3, 3, 3, 3, 3, 3, 3, 3, 3, 3, 3, 3, 3, 4, 4, 4, 4, 4, 4, 4, 4, 4, 4, 4, 4, 4, 0, 0, 0, 0, 0, 0, 0, 0, 0, 0, 0, 0, 0, 0, 0, 0, 0, 0, 0, 0, 0, 0, 0, 0, 1, 1, 1, 1, 1, 1, 1, 1, 1, 1, 1, 2, 2, 2, 2, 2, 2, 2, 2, 2, 2, 2, 2, 2, 2, 3, 3, 3, 3, 3, 3, 3, 3, 3, 3, 3, 3, 3, 3, 3, 4, 4, 4, 4, 4, 4, 4, 4, 4, 4, 4, 4, 4, 0, 0, 0, 0, 0, 0, 0, 0, 0, 0, 0, 0, 0, 0, 0, 0, 0, 0, 0, 0, 0, 0, 1, 1, 1, 1, 1, 1, 1, 1, 1, 1, 1, 1, 1, 1, 1, 1, 1, 1, 1, 1, 2, 2, 2, 2, 2, 2, 2, 2, 2, 2, 2, 2, 2, 2, 2, 2, 3, 3, 3, 3, 3, 3, 3, 3, 3, 3, 3, 3, 3, 4, 4, 4, 4, 4, 4, 4, 4, 4, 4, 4, 0, 0, 0, 0, 0, 0, 0, 0, 0, 0, 0, 0, 0, 0, 0, 0, 0, 0, 0, 0, 0, 0, 0, 0, 1, 1, 1, 1, 1, 1, 1, 1, 1, 1, 1, 1, 1, 1, 1, 1, 1, 2, 2, 2, 2, 2, 2, 2, 2, 2, 2, 2, 2, 2, 2, 2, 2, 2, 2, 3, 3, 3, 3, 3, 3, 3, 3, 3, 3, 3, 3, 3, 3, 3, 3, 3, 3, 3, 3, 4, 4, 4, 4, 4, 4, 4, 4, 4, 4, 4],
    "class_nodeids": [4, 7, 8, 9, 10, 14, 15, 16, 18, 19, 24, 25, 26, 29, 30, 31, 34, 35, 38, 39, 40, 5, 6, 7, 8, 13, 14, 15, 16, 17, 22, 24, 25, 28, 29, 31, 32, 33, 36, 37, 38, 4, 6, 7, 10, 11, 13, 15, 16, 19, 20, 21, 23, 25, 28, 29, 30, 4, 5, 7, 9, 10, 14, 15, 16, 17, 22, 24, 25, 27, 28, 29, 31, 32, 3, 5, 6, 8, 9, 12, 13, 15, 17, 19, 20, 4, 5, 7, 8, 10, 11, 15, 17, 18, 21, 22, 23, 26, 27, 29, 30, 6, 7, 8, 11, 12, 13, 17, 18, 19, 22, 23, 25, 26, 29, 31, 32, 33, 35, 36, 3, 5, 6, 10, 11, 13, 15, 16, 19, 20, 22, 23, 25, 27, 30, 31, 32, 4, 5, 7, 10, 11, 12, 16, 17, 18, 19, 23, 24, 26, 27, 29, 32, 34, 35, 36, 3, 5, 6, 9, 10, 11, 14, 16, 17, 19, 21, 23, 24, 4, 6, 7, 8, 11, 12, 13, 17, 19, 20, 23, 24, 26, 27, 30, 31, 33, 35, 36, 6, 7, 8, 11, 12, 13, 17, 18, 19, 22, 23, 25, 26, 30, 31, 32, 33, 35, 36, 3, 5, 6, 11, 12, 13, 15, 16, 19, 21, 22, 23, 25, 27, 30, 31, 32, 4, 5, 7, 9, 10, 15, 16, 17, 18, 19, 22, 23, 26, 27, 31, 32, 34, 35, 37, 38, 3, 5, 6, 9, 10, 11, 13, 16, 17, 20, 21, 23, 24, 5, 7, 8, 10, 11, 13, 15, 16, 18, 19, 23, 25, 26, 29, 30, 32, 33, 36, 37, 39, 40, 6, 7, 8, 11, 12, 13, 17, 18, 20, 21, 24, 25, 26, 29, 31, 32, 33, 35, 36, 3, 5, 6, 11, 12, 13, 15, 16, 19, 20, 22, 23, 25, 27, 29, 32, 33, 34, 4, 5, 9, 10, 11, 12, 17, 18, 19, 20, 21, 24, 25, 29, 30, 33, 34, 35, 37, 38, 3, 5, 6, 8, 10, 11, 14, 16, 17, 19, 21, 23, 24, 4, 7, 8, 10, 11, 12, 15, 16, 17, 21, 23, 25, 26, 29, 30, 32, 33, 36, 37, 39, 41, 42, 3, 5, 6, 8, 9, 13, 16, 17, 19, 20, 22, 23, 24, 3, 5, 6, 10, 11, 13, 14, 16, 19, 20, 21, 23, 25, 28, 29, 30, 3, 4, 6, 9, 10, 11, 14, 15, 20, 21, 23, 24, 26, 27, 30, 32, 33, 34, 3, 5, 6, 9, 10, 11, 13, 17, 18, 20, 22, 23, 24, 4, 6, 7, 11, 12, 14, 15, 17, 18, 22, 23, 25, 26, 28, 29, 35, 36, 37, 39, 40, 42, 43, 46, 47, 49, 50, 6, 7, 8, 9, 12, 13, 14, 17, 19, 20, 21, 23, 24, 3, 5, 6, 11, 12, 13, 16, 17, 18, 21, 22, 24, 25, 27, 29, 31, 34, 35, 36, 3, 5, 8, 9, 10, 15, 16, 17, 18, 19, 22, 23, 27, 28, 31, 32, 33, 35, 36, 3, 5, 6, 8, 10, 11, 13, 17, 18, 20, 22, 23, 24, 5, 6, 9, 10, 12, 13, 15, 17, 18, 21, 22, 23, 29, 30, 31, 33, 34, 36, 38, 39, 42, 43, 45, 46, 3, 5, 8, 9, 11, 12, 17, 18, 20, 21, 22, 25, 26, 29, 30, 32, 33, 36, 38, 39, 41, 42, 3, 5, 6, 11, 12, 13, 16, 17, 18, 21, 22, 24, 25, 27, 29, 32, 33, 34, 3, 5, 8, 9, 10, 13, 15, 16, 17, 22, 23, 25, 26, 29, 30, 32, 33, 34, 3, 5, 6, 9, 10, 11, 13, 17, 18, 20, 22, 23, 24, 4, 6, 7, 9, 10, 13, 14, 17, 19, 20, 22, 23, 28, 29, 32, 33, 34, 36, 38, 39, 42, 43, 45, 46, 3, 6, 8, 9, 12, 13, 15, 16, 18, 19, 20, 3, 4, 6, 7, 12, 13, 15, 16, 17, 19, 21, 23, 25, 26, 3, 4, 6, 8, 9, 12, 13, 18, 19, 21, 22, 24, 25, 27, 28, 3, 5, 6, 9, 10, 11, 17, 18, 20, 21, 22, 23, 24, 4, 7, 8, 9, 11, 13, 14, 17, 20, 21, 22, 23, 27, 28, 32, 33, 34, 35, 38, 39, 41, 42, 4, 6, 7, 9, 10, 15, 16, 18, 19, 21, 23, 24, 28, 29, 31, 32, 35, 36, 37, 38, 5, 6, 7, 9, 10, 13, 14, 17, 18, 20, 22, 23, 25, 27, 29, 30, 2, 5, 6, 7, 10, 12, 13, 18, 19, 20, 21, 23, 24, 3, 5, 6, 9, 12, 13, 14, 15, 17, 19, 20, 5, 7, 8, 11, 12, 13, 16, 17, 18, 22, 23, 24, 26, 27, 30, 34, 35, 37, 38, 39, 42, 44, 45, 46, 5, 6, 8, 9, 13, 14, 16, 17, 20, 21, 23, 24, 28, 29, 30, 31, 32, 4, 5, 7, 8, 13, 14, 16, 17, 19, 20, 22, 24, 26, 27, 29, 32, 33, 34, 3, 6, 7, 9, 11, 12, 15, 17, 18, 19, 22, 23, 27, 28, 31, 32, 33, 36, 37, 38, 3, 4, 6, 8, 9, 15, 16, 17, 18, 19, 20],
    "class_treeids": [0, 0, 0, 0, 0, 0, 0, 0, 0, 0, 0, 0, 0, 0, 0, 0, 0, 0, 0, 0, 0, 1, 1, 1, 1, 1, 1, 1, 1, 1, 1, 1, 1, 1, 1, 1, 1, 1, 1, 1, 1, 2, 2, 2, 2, 2, 2, 2, 2, 2, 2, 2, 2, 2, 2, 2, 2, 3, 3, 3, 3, 3, 3, 3, 3, 3, 3, 3, 3, 3, 3, 3, 3, 3, 4, 4, 4, 4, 4, 4, 4, 4, 4, 4, 4, 5, 5, 5, 5, 5, 5, 5, 5, 5, 5, 5, 5, 5, 5, 5, 5, 6, 6, 6, 6, 6, 6, 6, 6, 6, 6, 6, 6, 6, 6, 6, 6, 6, 6, 6, 7, 7, 7, 7, 7, 7, 7, 7, 7, 7, 7, 7, 7, 7, 7, 7, 7, 8, 8, 8, 8, 8, 8, 8, 8, 8, 8, 8, 8, 8, 8, 8, 8, 8, 8, 8, 9, 9, 9, 9, 9, 9, 9, 9, 9, 9, 9, 9, 9, 10, 10, 10, 10, 10, 10, 10, 10, 10, 10, 10, 10, 10, 10, 10, 10, 10, 10, 10, 11, 11, 11, 11, 11, 11, 11, 11, 11, 11, 11, 11, 11, 11, 11, 11, 11, 11, 11, 12, 12, 12, 12, 12, 12, 12, 12, 12, 12, 12, 12, 12, 12, 12, 12, 12, 13, 13, 13, 13, 13, 13, 13, 13, 13, 13, 13, 13, 13, 13, 13, 13, 13, 13, 13, 13, 14, 14, 14, 14, 14, 14, 14, 14, 14, 14, 14, 14, 14, 15, 15, 15, 15, 15, 15, 15, 15, 15, 15, 15, 15, 15, 15, 15, 15, 15, 15, 15, 15, 15, 16, 16, 16, 16, 16, 16, 16, 16, 16, 16, 16, 16, 16, 16, 16, 16, 16, 16, 16, 17, 17, 17, 17, 17, 17, 17, 17, 17, 17, 17, 17, 17, 17, 17, 17, 17, 17, 18, 18, 18, 18, 18, 18, 18, 18, 18, 18, 18, 18, 18, 18, 18, 18, 18, 18, 18, 18, 19, 19, 19, 19, 19, 19, 19, 19, 19, 19, 19, 19, 19, 20, 20, 20, 20, 20, 20, 20, 20, 20, 20, 20, 20, 20, 20, 20, 20, 20, 20, 20, 20, 20, 20, 21, 21, 21, 21, 21, 21, 21, 21, 21, 21, 21, 21, 21, 22, 22, 22, 22, 22, 22, 22, 22, 22, 22, 22, 22, 22, 22, 22, 22, 23, 23, 23, 23, 23, 23, 23, 23, 23, 23, 23, 23, 23, 23, 23, 23, 23, 23, 24, 24, 24, 24, 24, 24, 24, 24, 24, 24, 24, 24, 24, 25, 25, 25, 25, 25, 25, 25, 25, 25, 25, 25, 25, 25, 25, 25, 25, 25, 25, 25, 25, 25, 25, 25, 25, 25, 25, 26, 26, 26, 26, 26, 26, 26, 26, 26, 26, 26, 26, 26, 27, 27, 27, 27, 27, 27, 27, 27, 27, 27, 27, 27, 27, 27, 27, 27, 27, 27, 27, 28, 28, 28, 28, 28, 28, 28, 28, 28, 28, 28, 28, 28, 28, 28, 28, 28, 28, 28, 29, 29, 29, 29, 29, 29, 29, 29, 29, 29, 29, 29, 29, 30, 30, 30, 30, 30, 30, 30, 30, 30, 30, 30, 30, 30, 30, 30, 30, 30, 30, 30, 30, 30, 30, 30, 30, 31, 31, 31, 31, 31, 31, 31, 31, 31, 31, 31, 31, 31, 31, 31, 31, 31, 31, 31, 31, 31, 31, 32, 32, 32, 32, 32, 32, 32, 32, 32, 32, 32, 32, 32, 32, 32, 32, 32, 32, 33, 33, 33, 33, 33, 33, 33, 33, 33, 33, 33, 33, 33, 33, 33, 33, 33, 33, 34, 34, 34, 34, 34, 34, 34, 34, 34, 34, 34, 34, 34, 35, 35, 35, 35, 35, 35, 35, 35, 35, 35, 35, 35, 35, 35, 35, 35, 35, 35, 35, 35, 35, 35, 35, 35, 36, 36, 36, 36, 36, 36, 36, 36, 36, 36, 36, 37, 37, 37, 37, 37, 37, 37, 37, 37, 37, 37, 37, 37, 37, 38, 38, 38, 38, 38, 38, 38, 38, 38, 38, 38, 38, 38, 38, 38, 39, 39, 39, 39, 39, 39, 39, 39, 39, 39, 39, 39, 39, 40, 40, 40, 40, 40, 40, 40, 40, 40, 40, 40, 40, 40, 40, 40, 40, 40, 40, 40, 40, 40, 40, 41, 41, 41, 41, 41, 41, 41, 41, 41, 41, 41, 41, 41, 41, 41, 41, 41, 41, 41, 41, 42, 42, 42, 42, 42, 42, 42, 42, 42, 42, 42, 42, 42, 42, 42, 42, 43, 43, 43, 43, 43, 43, 43, 43, 43, 43, 43, 43, 43, 44, 44, 44, 44, 44, 44, 44, 44, 44, 44, 44, 45, 45, 45, 45, 45, 45, 45, 45, 45, 45, 45, 45, 45, 45, 45, 45, 45, 45, 45, 45, 45, 45, 45, 45, 46, 46, 46, 46, 46, 46, 46, 46, 46, 46, 46, 46, 46, 46, 46, 46, 46, 47, 47, 47, 47, 47, 47, 47, 47, 47, 47, 47, 47, 47, 47, 47, 47, 47, 47, 48, 48, 48, 48, 48, 48, 48, 48, 48, 48, 48, 48, 48, 48, 48, 48, 48, 48, 48, 48, 49, 49, 49, 49, 49, 49, 49, 49, 49, 49, 49],
    "class_weights": [0.7038663625717163, 0.5393258333206177, 0.15789473056793213, 0.08219178020954132, 0.02631579153239727, 0.23076923191547394, 0.02631579153239727, 0.5465116500854492, -0.14601770043373108, 0.15789473056793213, 0.2876712381839752, -0.11538461595773697, 0.5294117331504822, 0.3461538553237915, -0.10526316612958908, -0.15328466892242432, 0.08219178020954132, -0.10526316612958908, -0.12328767031431198, 0.02631579153239727, -0.17391304671764374, -0.13917525112628937, 0.0, 0.18493150174617767, -0.17741934955120087, -0.02054794505238533, 0.13725489377975464, 0.3461538553237915, -0.12962962687015533, -0.15976332128047943, 0.11538461595773697, 0.02631579153239727, -0.13483145833015442, 0.32987552881240845, -0.10526316612958908, 0.18493150174617767, -0.03488372266292572, -0.1487603336572647, -0.1650717705488205, 0.02631579153239727, 0.02631579153239727, -0.16321244835853577, 0.08219178020954132, -0.1428571343421936, -0.15838509798049927, 0.08219178020954132, -0.02054794505238533, 0.4615384638309479, 0.17010308802127838, 0.033707864582538605, 0.5567010045051575, -0.11538461595773697, -0.18152865767478943, -0.16417911648750305, -0.02054794505238533, 0.3461538553237915, -0.12962962687015533, 0.02631579153239727, -0.1487603336572647, -0.02054794505238533, 0.02631579153239727, 0.3849557638168335, -0.11538461595773697, 0.02631579153239727, -0.18328839540481567, 0.02631579153239727, 0.18493150174617767, -0.14601770043373108, 0.11538461595773697, 0.0, 0.3904109597206116, -0.12962962687015533, 0.3904109597206116, 0.11538461595773697, -0.18417316675186157, 0.02631579153239727, -0.12962962687015533, 0.14814814925193787, -0.12962962687015533, 0.18493150174617767, 0.02631579153239727, -0.15838509798049927, 0.28947368264198303, -0.10526316612958908, 0.02631579153239727, 0.24729210138320923, -0.09977550059556961, 0.36036935448646545, 0.0384971983730793, 0.1612534075975418, -0.12211044877767563, 0.3518376648426056, -0.10849927365779877, 0.1836123764514923, 0.022653333842754364, 0.2167113870382309, -0.15114636719226837, -0.01066209189593792, -0.16956885159015656, 0.20188911259174347, -0.11618182063102722, -0.13191376626491547, 0.13829539716243744, -0.16492539644241333, 0.19821305572986603, -0.09646236151456833, -0.1453789472579956, 0.04894502833485603, -0.13464808464050293, 0.11050507426261902, 0.2219216525554657, 0.030673740431666374, 0.05126896873116493, -0.09980744123458862, -0.10886391997337341, 0.009125513024628162, 0.04650787264108658, -0.15484656393527985, -0.1605767458677292, 0.025702381506562233, -0.16168591380119324, 0.26356905698776245, -0.10767178982496262, 0.033343445509672165, -0.15569648146629333, -0.1288159340620041, 0.32336530089378357, 0.05664908513426781, -0.09958701580762863, 0.20390817523002625, 0.3373710513114929, 0.04977324232459068, -0.1717558205127716, -0.15545211732387543, -0.018539611250162125, 0.26875898241996765, -0.12353967130184174, 0.04185056313872337, -0.14414717257022858, -0.021155407652258873, -0.02725961245596409, 0.19839195907115936, 0.3089025020599365, 0.0355352945625782, -0.10804031044244766, -0.1742701232433319, 0.02410818450152874, 0.195916548371315, -0.1076069325208664, 0.3473803699016571, 0.0029142601415514946, -0.12092909961938858, -0.1442849189043045, 0.22499895095825195, 0.01729358732700348, 0.23406586050987244, -0.1753450185060501, -0.12559132277965546, 0.03358762711286545, -0.09592382609844208, 0.2547444999217987, -0.12250421196222305, 0.012693547643721104, 0.20120100677013397, 0.05283389613032341, -0.14933492243289948, 0.23391567170619965, -0.10427743941545486, 0.035778775811195374, 0.015761833637952805, 0.2713020443916321, 0.050807785242795944, -0.00920420978218317, -0.1472918540239334, 0.08173409849405289, 0.23740486800670624, 0.005288849119096994, 0.12296123802661896, 0.3199191689491272, -0.16114147007465363, 0.10542567819356918, 0.05176503583788872, 0.2138461023569107, -0.1214374452829361, 0.17670577764511108, -0.1620110422372818, 0.05064233019948006, -0.11974728852510452, -0.12184362858533859, 0.11404865980148315, -0.15663877129554749, 0.0048294393345713615, 0.17763470113277435, -0.13694007694721222, 0.04419640824198723, -0.12859871983528137, 0.09157220274209976, -0.08121979236602783, 0.11130260676145554, 0.3092709183692932, 0.10494481027126312, 0.047733455896377563, 0.009443755261600018, -0.10455343127250671, -0.14688223600387573, -0.15263405442237854, 0.021691586822271347, -0.1539122611284256, 0.21190723776817322, -0.10040676593780518, 0.116663359105587, -0.13143083453178406, 0.23836445808410645, -0.15084518492221832, 0.03555183857679367, -0.0014313573483377695, 0.037009235471487045, 0.2951497733592987, 0.0010874547297134995, -0.16438117623329163, -0.14632059633731842, -0.0164626631885767, 0.20811311900615692, -0.11820979416370392, 0.03949882090091705, -0.13396139442920685, -0.004841008223593235, 0.05307028442621231, 0.23438721895217896, 0.0048319753259420395, 0.04982861131429672, -0.13102179765701294, -0.1677716225385666, 0.04203133285045624, -0.007011009845882654, 0.29921087622642517, -0.141695037484169, 0.11514417827129364, 0.3202703595161438, -0.006615839432924986, -0.10826094448566437, 0.15288719534873962, 0.04622213542461395, -0.10051580518484116, -0.16853748261928558, 0.03537746146321297, -0.11966123431921005, 0.0058502680622041225, 0.16928724944591522, -0.11386418342590332, -0.12249638885259628, -0.00040327003807760775, 0.2970268428325653, -0.1405617892742157, 0.021261747926473618, 0.016542669385671616, 0.19671936333179474, 0.22650077939033508, -0.14379370212554932, 0.13815779983997345, 0.23396556079387665, 0.06957872211933136, -0.03979334980249405, 0.23066699504852295, -0.03647851198911667, 0.10618455708026886, -0.11002472788095474, 0.2094070166349411, -0.09678417444229126, 0.11926595866680145, 0.16724452376365662, -0.032992541790008545, 0.008307375945150852, -0.1376643180847168, -0.003921573515981436, -0.16042965650558472, 0.1655980348587036, -0.10237111896276474, 0.14016243815422058, -0.0735282227396965, -0.14919601380825043, 0.16074509918689728, -0.0037238190416246653, -0.12847736477851868, 0.15719306468963623, -0.05802034214138985, 0.018863599747419357, 0.2573016881942749, -0.01242585014551878, 0.14196084439754486, -0.12653329968452454, -0.09761127084493637, 0.009327567182481289, 0.04436926543712616, -0.1401907354593277, -0.14692284166812897, 0.024175960570573807, -0.14750385284423828, 0.1769179403781891, -0.09263002872467041, 0.09715444594621658, -0.12399975210428238, 0.19454675912857056, -0.14267367124557495, 0.03193607181310654, -0.09671040624380112, 0.11304593086242676, 0.23644252121448517, 0.011677134782075882, -0.1583310216665268, -0.13975919783115387, -0.11759505420923233, 0.1709955930709839, -0.11392500251531601, 0.20243652164936066, 0.04854337126016617, -0.12916524708271027, 0.022850068286061287, -0.12138326466083527, 0.1941499561071396, 0.2101191133260727, -0.0016238369280472398, 0.05041142925620079, -0.1236172690987587, -0.1619739532470703, 0.03842103108763695, -0.004535594489425421, 0.24329301714897156, 0.04074644297361374, -0.143906831741333, 0.022184014320373535, 0.21374571323394775, -0.10289493203163147, 0.21507126092910767, -0.006721291225403547, -0.163166344165802, -0.11431538313627243, 0.03694219887256622, -0.11157706379890442, -0.0016991832526400685, 0.1701657623052597, 0.16856935620307922, 0.15070775151252747, -0.10294683277606964, -0.13654327392578125, 0.17393650114536285, -0.09691590815782547, 0.031386375427246094, -0.003004200989380479, 0.19952504336833954, 0.09845657646656036, -0.05950312316417694, 0.16902998089790344, -0.014521532692015171, -0.14121092855930328, 0.06300115585327148, 0.17499858140945435, -0.007709105033427477, 0.23272664844989777, 0.166758194565773, -0.01846211403608322, -0.15037497878074646, 0.08563781529664993, 0.014438285492360592, 0.1622299998998642, -0.10705440491437912, 0.13800884783267975, -0.1535721868276596, 0.041054047644138336, -0.10995453596115112, -0.1605067402124405, -0.10530579835176468, 0.1716753989458084, -0.11155243217945099, 0.18866346776485443, -0.10180164128541946, 0.28946784138679504, -0.05996247008442879, -0.025970736518502235, 0.07536503672599792, -0.12656830251216888, 0.04963196441531181, -0.11963598430156708, -0.13632161915302277, 0.039845362305641174, 0.006833760533481836, 0.04359497129917145, -0.1469317376613617, 0.14898931980133057, 0.030603384599089622, -0.11306554824113846, 0.03755965456366539, 0.21390148997306824, -0.09031467139720917, -0.15322087705135345, -0.13264448940753937, -0.0061995466239750385, 0.14713013172149658, -0.10894640535116196, 0.04332537576556206, -0.15673884749412537, -0.12568625807762146, -0.009942363947629929, 0.26289859414100647, -0.09131154417991638, -0.14319980144500732, 0.125812366604805, 0.185709148645401, 0.023202521726489067, -0.028446387499570847, 0.12901897728443146, -0.10282916575670242, 0.026274822652339935, -0.1343134641647339, -0.10293293744325638, 0.11427107453346252, 0.1624213457107544, -0.15873858332633972, 0.040952280163764954, -0.10858463495969772, 0.006764634978026152, 0.1363501399755478, -0.10545803606510162, -0.10968957096338272, 0.23895837366580963, 0.00989011861383915, -0.11289409548044205, 0.14869163930416107, 0.007505894172936678, -0.10275670140981674, 0.13962788879871368, 0.002835206687450409, -0.10754192620515823, 0.18954935669898987, 0.06005615368485451, -0.05643961951136589, 0.1452663391828537, -0.058435045182704926, 0.13768060505390167, 0.027443304657936096, -0.09987033158540726, 0.19244323670864105, 0.00051264459034428, -0.13657468557357788, 0.06505108624696732, 0.06982037425041199, -0.14398059248924255, 0.12201350182294846, 0.17990902066230774, 0.04292447119951248, 0.03774327412247658, -0.11302746832370758, 0.00293014757335186, -0.15283319354057312, 0.1365354210138321, -0.0993976891040802, 0.0005775212193839252, 0.07990941405296326, -0.11978639662265778, -0.13187262415885925, 0.2235066294670105, 0.03905995190143585, -0.026639653369784355, -0.08888114243745804, 0.050399597734212875, 0.005810820031911135, -0.12962886691093445, -0.13514991104602814, 0.03359542787075043, -0.13087280094623566, 0.03931412845849991, 0.010845215059816837, 0.18614117801189423, 0.05372859537601471, -0.09601948410272598, -0.14465531706809998, -0.021340342238545418, 0.11535786092281342, -0.044389884918928146, 0.09515254199504852, 0.22414465248584747, 0.016078226268291473, -0.1485237330198288, -0.12642091512680054, -0.10829098522663116, 0.14237123727798462, -0.10435255616903305, 0.15920737385749817, -0.10868783295154572, -0.01774539425969124, 0.08152808994054794, 0.23202183842658997, -0.02035166323184967, -0.10799094289541245, 0.1423369199037552, -0.11610454320907593, -0.15349458158016205, 0.04460573568940163, -0.007831335067749023, 0.18800893425941467, -0.1369878053665161, 0.03412889689207077, 0.020689859986305237, -0.02971089445054531, 0.16600456833839417, 0.15299613773822784, 0.0001749453804222867, -0.15494710206985474, -0.10473403334617615, 0.04840835928916931, -0.10178220272064209, 0.14007826149463654, -0.002604853827506304, -0.10136029124259949, 0.20884066820144653, 0.00958416610956192, -0.10578657686710358, 0.01783095858991146, 0.14709456264972687, -0.09599047154188156, 0.19199804961681366, -0.02149226702749729, -0.05852893367409706, 0.11970508843660355, 0.008100733160972595, 0.16858720779418945, -0.05815119296312332, 0.1589144915342331, -0.053380221128463745, -0.00944453850388527, -0.110549695789814, 0.12189873307943344, 0.034181565046310425, 0.169769749045372, 0.025631913915276527, 0.0949016883969307, -0.10655821114778519, -0.1325601190328598, 0.13886259496212006, -0.03864338621497154, 0.00599457323551178, -0.14762867987155914, 0.12436126172542572, -0.09443455934524536, 0.1235058382153511, -0.14724455773830414, 0.179477721452713, 0.023203350603580475, -0.08328856527805328, 0.02941925637423992, -0.009546911343932152, 0.2223469614982605, -0.11176065355539322, 0.13025695085525513, -0.10900286585092545, 0.018632495775818825, -0.13703924417495728, 0.011821219697594643, 0.2183539718389511, 0.14877310395240784, -0.1369679719209671, -0.15880253911018372, 0.08759225904941559, -0.08985783159732819, 0.008028683252632618, 0.11463141441345215, -0.12504082918167114, 0.03582460805773735, 0.007376057095825672, 0.162212535738945, 0.04291737824678421, -0.08910315483808517, -0.14024214446544647, -0.017878714948892593, 0.10213249921798706, -0.04220661148428917, 0.08859512954950333, 0.19914518296718597, 0.009611856192350388, -0.1442253589630127, -0.11970169842243195, 0.0022052752319723368, 0.11848263442516327, -0.09928146004676819, -0.10228651762008667, -0.024612560868263245, 0.1609720140695572, 0.03644249215722084, -0.005937166512012482, -0.016158757731318474, -0.012115868739783764, -0.1508314609527588, 0.04369889199733734, -0.006114605814218521, 0.12163253873586655, 0.0040885512717068195, -0.11653834581375122, 0.04233532398939133, 0.20954813063144684, -0.11356434971094131, 0.1252576857805252, -0.051551200449466705, -0.15156930685043335, 0.04920477792620659, -0.0997331365942955, 0.002078728750348091, 0.11942677944898605, -0.09654742479324341, -0.09551731497049332, 0.18161572515964508, 0.008223515935242176, -0.1012183204293251, 0.121170774102211, -0.00011101230484200642, -0.08839598298072815, -0.0622883178293705, 0.129707470536232, 0.01937633380293846, 0.16662678122520447, 0.038274601101875305, -0.03483656421303749, 0.168071910738945, 0.15689979493618011, 0.0638287290930748, -0.07280218601226807, -0.14527101814746857, 0.01815289631485939, 0.047203049063682556, 0.15245932340621948, 0.009316111914813519, 0.13006849586963654, -0.10020557790994644, -0.12603448331356049, 0.12073975056409836, -0.037428054958581924, 0.10967893898487091, -0.08618631958961487, 0.005672401748597622, -0.1440308541059494, -0.10814934223890305, 0.19901493191719055, -0.12218349426984787, 0.09653038531541824, 0.11708465218544006, -0.06606680899858475, 0.08935146033763885, -0.010398473590612411, -0.12136270850896835, 0.04188593477010727, -0.11632122099399567, -0.02367740496993065, -0.14579308032989502, -0.028733592480421066, 0.12699861824512482, -0.12094864249229431, 0.05287257954478264, 0.016030289232730865, 0.13827112317085266, -0.1250976324081421, -0.05536146089434624, 0.17026470601558685, -0.10390212386846542, -0.05418809875845909, 0.08890400826931, 0.03776673972606659, -0.1454315483570099, -0.10946393013000488, -0.03215663507580757, 0.1342870146036148, -0.1292920857667923, 0.08912239968776703, -0.03509238734841347, 0.10672609508037567, -0.13518942892551422, 0.1134321317076683, 0.20080353319644928, 0.05045538395643234, -0.10405009984970093, 0.044146984815597534, -0.14834479987621307, 0.04299784451723099, -0.09358388185501099, 0.0019872563425451517, 0.10650456696748734, -0.0914493203163147, 0.000501045782584697, 0.119407057762146, -0.0965108647942543, 0.023118343204259872, -0.09956452995538712, 0.1319134682416916, -0.08936260640621185, 0.15991398692131042, 0.03702659532427788, -0.10329657793045044, 0.11891091614961624, 0.11821449548006058, 0.014297926798462868, -0.11332496255636215, 0.16359083354473114, -0.054049912840127945, 0.05306154862046242, 0.13744746148586273, 0.021021131426095963, 0.007923753000795841, 0.14057758450508118, -0.10352961719036102, 0.1058182343840599, -0.12394308298826218, 0.11242004483938217, -0.08526760339736938, 0.11126068979501724, -0.13964678347110748, -0.041406553238630295, -0.14281834661960602, -0.08612042665481567, 0.13434305787086487, -0.03672486171126366, 0.15549783408641815, 0.14369261264801025, -0.00940318126231432, 0.042536672204732895, -0.13289380073547363, -0.0528489425778389, 0.014109759591519833, 0.16234925389289856, 0.007127054501324892, -0.12661461532115936, 0.039201632142066956, 0.1783464550971985, -0.1081642284989357, 0.0759335607290268, -0.15039053559303284, -0.11025820672512054, -0.09522903710603714, 0.052283402532339096, -0.1226690486073494, 0.09227974712848663, 0.012480995617806911, 0.04896547272801399, -0.11817789822816849, -0.012529512867331505, 0.17484885454177856, -0.11041851341724396, 0.0033151779789477587, 0.1406235694885254, -0.13844601809978485, -0.10881094634532928, 0.12385289371013641, -0.032628364861011505, 0.06425897777080536, -0.14592787623405457, -0.02826699987053871, 0.051136408001184464, -0.12303201109170914, -0.08567389845848083, 0.12043514847755432, 0.13185524940490723, 0.04109758511185646, -0.11099574714899063, 0.14719200134277344, -0.0935838595032692, 0.03633992001414299, -0.1452753096818924, -0.09068278968334198, 0.04427003115415573, -0.02651228755712509, -0.0021492058876901865, 0.1666141301393509, -0.015202525071799755, -0.12034381926059723, -0.09088921546936035, 0.15392369031906128, -0.012520465068519115, 0.1544896513223648, -0.05031431093811989, 0.06147456541657448, -0.03139538690447807, 0.122732974588871, -0.10138655453920364, 0.15989872813224792, 0.034941259771585464, 0.01680440455675125, -0.014597267843782902, 0.0852215364575386, -0.10984408110380173, 0.12889403104782104, 0.011449452489614487, -0.06228432431817055, 0.056473322212696075, -0.04573442414402962, 0.15581683814525604, 0.019541865214705467, -0.042938027530908585, -0.10425224900245667, 0.12518168985843658, -0.023828299716114998, -0.13785405457019806, -0.13781677186489105, -0.026925519108772278, 0.011744832620024681, 0.10485544800758362, 0.1751837432384491, -0.025324301794171333, -0.0065018180757761, 0.10189035534858704, -0.12824757397174835, -0.01984409987926483, -0.0089141596108675, 0.13792899250984192, -0.012842935509979725, 0.04165662080049515, -0.14450109004974365, 0.0669429823756218, -0.1043420284986496, -0.01879531517624855, -0.12281380593776703, 0.006722474005073309, 0.10190092772245407, 0.03641956299543381, -0.09891814738512039, 0.005440362263470888, 0.12465868145227432, -0.13309264183044434, 0.04784330725669861, 0.024728473275899887, 0.15735937654972076, -0.012160594575107098, 0.11604251712560654, -0.1332980841398239, -0.011822784319519997, 0.07298149913549423, -0.10375934094190598, -0.08286330103874207, 0.1579788625240326, 0.03911368176341057, -0.10021379590034485, 0.09820374101400375, -0.017468856647610664, -0.011350026354193687, -0.012784893624484539, -0.14229163527488708, 0.024427061900496483, -0.00924732070416212, 0.1401597559452057, -0.11989061534404755, 0.007692054845392704, 0.009141458198428154, -0.02315627783536911, 0.12256955355405807, 0.13853296637535095, 0.03357226029038429, -0.018248246982693672, -0.143456369638443, -0.042610056698322296, 0.1470625400543213, -0.1101650819182396, 0.029620656743645668, 0.08409129828214645, 0.010544143617153168, -0.09869620949029922, 0.09884600341320038, -0.11004853993654251, 0.0950942188501358],
    "classlabels": [0, 1, 2, 3, 4],
    "nodes_falsenodeids": [20, 11, 10, 5, 0, 9, 8, 0, 0, 0, 0, 17, 16, 15, 0, 0, 0, 19, 0, 0, 32, 27, 26, 25, 0, 0, 0, 31, 30, 0, 0, 0, 36, 35, 0, 0, 40, 39, 0, 0, 0, 18, 9, 8, 7, 6, 0, 0, 0, 0, 17, 16, 15, 14, 0, 0, 0, 0, 0, 34, 33, 26, 23, 0, 25, 0, 0, 30, 29, 0, 0, 32, 0, 0, 0, 38, 37, 0, 0, 0, 22, 17, 8, 5, 0, 7, 0, 0, 12, 11, 0, 0, 14, 0, 16, 0, 0, 21, 20, 0, 0, 0, 24, 0, 26, 0, 30, 29, 0, 0, 0, 18, 11, 6, 5, 0, 0, 8, 0, 10, 0, 0, 17, 16, 15, 0, 0, 0, 0, 30, 29, 26, 23, 0, 25, 0, 0, 28, 0, 0, 0, 32, 0, 0, 10, 7, 4, 0, 6, 0, 0, 9, 0, 0, 14, 13, 0, 0, 16, 0, 18, 0, 20, 0, 0, 12, 9, 6, 5, 0, 0, 8, 0, 0, 11, 0, 0, 24, 19, 16, 0, 18, 0, 0, 23, 22, 0, 0, 0, 28, 27, 0, 0, 30, 0, 0, 34, 27, 14, 9, 8, 7, 0, 0, 0, 13, 12, 0, 0, 0, 20, 19, 18, 0, 0, 0, 24, 23, 0, 0, 26, 0, 0, 33, 30, 0, 32, 0, 0, 0, 36, 0, 0, 24, 7, 4, 0, 6, 0, 0, 17, 12, 11, 0, 0, 14, 0, 16, 0, 0, 21, 20, 0, 0, 23, 0, 0, 26, 0, 28, 0, 32, 31, 0, 0, 0, 20, 13, 6, 5, 0, 0, 8, 0, 12, 11, 0, 0, 0, 19, 18, 17, 0, 0, 0, 0, 28, 25, 24, 0, 0, 27, 0, 0, 30, 0, 36, 33, 0, 35, 0, 0, 0, 12, 7, 4, 0, 6, 0, 0, 11, 10, 0, 0, 0, 18, 15, 0, 17, 0, 0, 20, 0, 22, 0, 24, 0, 0, 14, 9, 8, 5, 0, 7, 0, 0, 0, 13, 12, 0, 0, 0, 28, 21, 18, 0, 20, 0, 0, 25, 24, 0, 0, 27, 0, 0, 32, 31, 0, 0, 34, 0, 36, 0, 0, 34, 27, 14, 9, 8, 7, 0, 0, 0, 13, 12, 0, 0, 0, 20, 19, 18, 0, 0, 0, 24, 23, 0, 0, 26, 0, 0, 33, 32, 31, 0, 0, 0, 0, 36, 0, 0, 24, 7, 4, 0, 6, 0, 0, 17, 14, 13, 12, 0, 0, 0, 16, 0, 0, 23, 20, 0, 22, 0, 0, 0, 26, 0, 28, 0, 32, 31, 0, 0, 0, 20, 11, 6, 5, 0, 0, 8, 0, 10, 0, 0, 19, 18, 17, 16, 0, 0, 0, 0, 0, 24, 23, 0, 0, 28, 27, 0, 0, 36, 33, 32, 0, 0, 35, 0, 0, 38, 0, 0, 12, 7, 4, 0, 6, 0, 0, 11, 10, 0, 0, 0, 14, 0, 18, 17, 0, 0, 22, 21, 0, 0, 24, 0, 0, 20, 17, 12, 9, 6, 0, 8, 0, 0, 11, 0, 0, 14, 0, 16, 0, 0, 19, 0, 0, 34, 27, 24, 0, 26, 0, 0, 31, 30, 0, 0, 33, 0, 0, 38, 37, 0, 0, 40, 0, 0, 34, 27, 14, 9, 8, 7, 0, 0, 0, 13, 12, 0, 0, 0, 22, 19, 18, 0, 0, 21, 0, 0, 26, 25, 0, 0, 0, 33, 30, 0, 32, 0, 0, 0, 36, 0, 0, 24, 7, 4, 0, 6, 0, 0, 17, 14, 13, 12, 0, 0, 0, 16, 0, 0, 21, 20, 0, 0, 23, 0, 0, 26, 0, 28, 0, 30, 0, 34, 33, 0, 0, 0, 22, 13, 6, 5, 0, 0, 12, 11, 10, 0, 0, 0, 0, 21, 20, 19, 18, 0, 0, 0, 0, 0, 26, 25, 0, 0, 36, 31, 30, 0, 0, 35, 34, 0, 0, 0, 38, 0, 0, 12, 7, 4, 0, 6, 0, 0, 9, 0, 11, 0, 0, 18, 15, 0, 17, 0, 0, 20, 0, 22, 0, 24, 0, 0, 18, 13, 12, 5, 0, 9, 8, 0, 0, 11, 0, 0, 0, 17, 16, 0, 0, 0, 34, 27, 22, 0, 24, 0, 26, 0, 0, 31, 30, 0, 0, 33, 0, 0, 38, 37, 0, 0, 40, 0, 42, 0, 0, 10, 7, 4, 0, 6, 0, 0, 9, 0, 0, 24, 21, 14, 0, 18, 17, 0, 0, 20, 0, 0, 23, 0, 0, 0, 22, 7, 4, 0, 6, 0, 0, 15, 12, 11, 0, 0, 14, 0, 0, 17, 0, 21, 20, 0, 0, 0, 24, 0, 26, 0, 30, 29, 0, 0, 0, 12, 5, 4, 0, 0, 7, 0, 11, 10, 0, 0, 0, 16, 15, 0, 0, 28, 25, 22, 21, 0, 0, 24, 0, 0, 27, 0, 0, 34, 31, 0, 33, 0, 0, 0, 12, 7, 4, 0, 6, 0, 0, 11, 10, 0, 0, 0, 14, 0, 24, 19, 18, 0, 0, 21, 0, 23, 0, 0, 0, 30, 19, 8, 5, 0, 7, 0, 0, 16, 13, 12, 0, 0, 15, 0, 0, 18, 0, 0, 27, 24, 23, 0, 0, 26, 0, 0, 29, 0, 0, 44, 41, 38, 37, 36, 0, 0, 0, 40, 0, 0, 43, 0, 0, 48, 47, 0, 0, 50, 0, 0, 22, 15, 10, 9, 8, 7, 0, 0, 0, 0, 14, 13, 0, 0, 0, 21, 18, 0, 20, 0, 0, 0, 24, 0, 0, 26, 7, 4, 0, 6, 0, 0, 19, 14, 13, 12, 0, 0, 0, 18, 17, 0, 0, 0, 23, 22, 0, 0, 25, 0, 0, 28, 0, 30, 0, 32, 0, 36, 35, 0, 0, 0, 20, 11, 4, 0, 6, 0, 10, 9, 0, 0, 0, 19, 18, 17, 16, 0, 0, 0, 0, 0, 24, 23, 0, 0, 34, 29, 28, 0, 0, 33, 32, 0, 0, 0, 36, 0, 0, 12, 7, 4, 0, 6, 0, 0, 9, 0, 11, 0, 0, 14, 0, 24, 19, 18, 0, 0, 21, 0, 23, 0, 0, 0, 24, 19, 14, 7, 6, 0, 0, 11, 10, 0, 0, 13, 0, 0, 16, 0, 18, 0, 0, 23, 22, 0, 0, 0, 40, 35, 32, 31, 30, 0, 0, 0, 34, 0, 0, 37, 0, 39, 0, 0, 44, 43, 0, 0, 46, 0, 0, 34, 13, 4, 0, 6, 0, 10, 9, 0, 0, 12, 0, 0, 23, 22, 19, 18, 0, 0, 21, 0, 0, 0, 27, 26, 0, 0, 31, 30, 0, 0, 33, 0, 0, 40, 37, 0, 39, 0, 0, 42, 0, 0, 26, 7, 4, 0, 6, 0, 0, 19, 14, 13, 12, 0, 0, 0, 18, 17, 0, 0, 0, 23, 22, 0, 0, 25, 0, 0, 28, 0, 30, 0, 34, 33, 0, 0, 0, 18, 11, 4, 0, 6, 0, 10, 9, 0, 0, 0, 17, 14, 0, 16, 0, 0, 0, 34, 27, 24, 23, 0, 0, 26, 0, 0, 31, 30, 0, 0, 33, 0, 0, 0, 12, 7, 4, 0, 6, 0, 0, 11, 10, 0, 0, 0, 14, 0, 24, 19, 18, 0, 0, 21, 0, 23, 0, 0, 0, 24, 11, 8, 5, 0, 7, 0, 0, 10, 0, 0, 15, 14, 0, 0, 21, 18, 0, 20, 0, 0, 23, 0, 0, 40, 35, 30, 29, 0, 0, 34, 33, 0, 0, 0, 37, 0, 39, 0, 0, 44, 43, 0, 0, 46, 0, 0, 20, 17, 4, 0, 10, 7, 0, 9, 0, 0, 14, 13, 0, 0, 16, 0, 0, 19, 0, 0, 0, 8, 5, 4, 0, 0, 7, 0, 0, 18, 17, 14, 13, 0, 0, 16, 0, 0, 0, 20, 0, 22, 0, 24, 0, 26, 0, 0, 10, 5, 4, 0, 0, 7, 0, 9, 0, 0, 14, 13, 0, 0, 26, 23, 20, 19, 0, 0, 22, 0, 0, 25, 0, 0, 28, 0, 0, 12, 7, 4, 0, 6, 0, 0, 11, 10, 0, 0, 0, 24, 23, 22, 19, 18, 0, 0, 21, 0, 0, 0, 0, 0, 24, 15, 10, 5, 0, 9, 8, 0, 0, 0, 12, 0, 14, 0, 0, 23, 18, 0, 22, 21, 0, 0, 0, 0, 36, 29, 28, 0, 0, 35, 34, 33, 0, 0, 0, 0, 40, 39, 0, 0, 42, 0, 0, 38, 11, 8, 5, 0, 7, 0, 0, 10, 0, 0, 25, 20, 17, 16, 0, 0, 19, 0, 0, 22, 0, 24, 0, 0, 33, 30, 29, 0, 0, 32, 0, 0, 37, 36, 0, 0, 0, 0, 24, 11, 8, 7, 6, 0, 0, 0, 10, 0, 0, 15, 14, 0, 0, 19, 18, 0, 0, 21, 0, 23, 0, 0, 26, 0, 28, 0, 30, 0, 0, 8, 3, 0, 7, 6, 0, 0, 0, 14, 11, 0, 13, 0, 0, 22, 21, 20, 19, 0, 0, 0, 0, 24, 0, 0, 16, 7, 4, 0, 6, 0, 0, 15, 10, 0, 14, 13, 0, 0, 0, 0, 18, 0, 20, 0, 0, 28, 19, 14, 9, 6, 0, 8, 0, 0, 13, 12, 0, 0, 0, 18, 17, 0, 0, 0, 25, 24, 23, 0, 0, 0, 27, 0, 0, 40, 31, 0, 39, 36, 35, 0, 0, 38, 0, 0, 0, 46, 43, 0, 45, 0, 0, 0, 32, 25, 10, 7, 6, 0, 0, 9, 0, 0, 18, 15, 14, 0, 0, 17, 0, 0, 22, 21, 0, 0, 24, 0, 0, 31, 30, 29, 0, 0, 0, 0, 0, 28, 9, 6, 5, 0, 0, 8, 0, 0, 21, 18, 15, 14, 0, 0, 17, 0, 0, 20, 0, 0, 23, 0, 25, 0, 27, 0, 0, 30, 0, 34, 33, 0, 0, 0, 20, 13, 4, 0, 8, 7, 0, 0, 10, 0, 12, 0, 0, 19, 16, 0, 18, 0, 0, 0, 24, 23, 0, 0, 34, 29, 28, 0, 0, 33, 32, 0, 0, 0, 38, 37, 0, 0, 0, 10, 5, 4, 0, 0, 7, 0, 9, 0, 0, 20, 19, 18, 17, 16, 0, 0, 0, 0, 0, 0],
    "nodes_featureids": [12, 11, 3, 0, 0, 7, 2, 0, 0, 0, 0, 2, 4, 4, 0, 0, 0, 4, 0, 0, 11, 8, 0, 2, 0, 0, 0, 9, 4, 0, 0, 0, 9, 11, 0, 0, 2, 11, 0, 0, 0, 12, 0, 3, 11, 0, 0, 0, 0, 0, 0, 5, 3, 7, 0, 0, 0, 0, 0, 9, 5, 4, 0, 0, 4, 0, 0, 0, 4, 0, 0, 3, 0, 0, 0, 0, 5, 0, 0, 0, 7, 9, 4, 11, 0, 3, 0, 0, 9, 0, 0, 0, 3, 0, 7, 0, 0, 9, 7, 0, 0, 0, 11, 0, 2, 0, 0, 0, 0, 0, 0, 11, 7, 12, 0, 0, 0, 8, 0, 9, 0, 0, 3, 0, 0, 0, 0, 0, 0, 9, 7, 7, 3, 0, 5, 0, 0, 12, 0, 0, 0, 0, 0, 0, 9, 11, 3, 0, 3, 0, 0, 9, 0, 0, 9, 0, 0, 0, 9, 0, 3, 0, 0, 0, 0, 2, 9, 7, 4, 0, 0, 3, 0, 0, 11, 0, 0, 11, 12, 8, 0, 7, 0, 0, 9, 0, 0, 0, 0, 4, 7, 0, 0, 1, 0, 0, 5, 9, 12, 0, 3, 1, 0, 0, 0, 0, 4, 0, 0, 0, 4, 6, 0, 0, 0, 0, 4, 0, 0, 0, 3, 0, 0, 4, 4, 0, 0, 0, 0, 0, 9, 0, 0, 7, 9, 0, 0, 0, 0, 0, 7, 4, 9, 0, 0, 3, 0, 7, 0, 0, 2, 9, 0, 0, 9, 0, 0, 11, 0, 2, 0, 0, 0, 0, 0, 0, 11, 7, 12, 9, 0, 0, 8, 0, 9, 3, 0, 0, 0, 3, 0, 7, 0, 0, 0, 0, 0, 9, 7, 0, 0, 4, 0, 0, 7, 0, 3, 4, 0, 7, 0, 0, 0, 9, 11, 3, 0, 8, 0, 0, 9, 2, 0, 0, 0, 9, 3, 0, 4, 0, 0, 9, 0, 3, 0, 4, 0, 0, 12, 11, 9, 7, 0, 3, 0, 0, 0, 7, 0, 0, 0, 0, 11, 9, 0, 0, 7, 0, 0, 7, 3, 0, 0, 0, 0, 0, 9, 9, 0, 0, 11, 0, 2, 0, 0, 5, 9, 12, 0, 3, 1, 0, 0, 0, 0, 4, 0, 0, 0, 4, 6, 0, 0, 0, 0, 7, 9, 0, 0, 7, 0, 0, 4, 9, 3, 0, 0, 0, 0, 9, 0, 0, 7, 9, 0, 0, 0, 0, 0, 7, 7, 4, 9, 0, 0, 0, 0, 0, 0, 11, 10, 0, 2, 0, 0, 0, 11, 0, 2, 0, 0, 0, 0, 0, 0, 11, 7, 12, 7, 0, 0, 7, 0, 9, 0, 0, 0, 7, 0, 4, 0, 0, 0, 0, 0, 0, 12, 0, 0, 6, 7, 0, 0, 0, 8, 4, 0, 0, 4, 0, 0, 9, 0, 0, 9, 11, 3, 0, 3, 0, 0, 9, 9, 0, 0, 0, 7, 0, 7, 3, 0, 0, 9, 7, 0, 0, 4, 0, 0, 2, 9, 3, 7, 4, 0, 2, 0, 0, 0, 0, 0, 3, 0, 4, 0, 0, 11, 0, 0, 11, 8, 12, 0, 0, 0, 0, 9, 10, 0, 0, 3, 0, 0, 4, 7, 0, 0, 1, 0, 0, 5, 9, 12, 0, 3, 7, 0, 0, 0, 0, 4, 0, 0, 0, 3, 3, 0, 0, 0, 4, 0, 0, 11, 11, 0, 0, 0, 4, 7, 0, 0, 0, 0, 0, 10, 0, 0, 7, 9, 0, 0, 0, 0, 0, 7, 7, 4, 9, 0, 0, 0, 0, 0, 0, 9, 4, 0, 0, 9, 0, 0, 11, 0, 2, 0, 1, 0, 3, 7, 0, 0, 0, 11, 7, 12, 3, 0, 0, 6, 9, 0, 0, 0, 0, 0, 0, 7, 0, 4, 0, 0, 0, 0, 0, 0, 2, 0, 0, 5, 9, 3, 0, 0, 4, 7, 0, 0, 0, 9, 0, 0, 9, 11, 3, 0, 4, 0, 0, 2, 0, 0, 0, 0, 9, 4, 0, 0, 0, 0, 9, 0, 3, 0, 4, 0, 0, 12, 11, 9, 7, 0, 4, 8, 0, 0, 4, 0, 0, 0, 7, 0, 0, 0, 0, 11, 9, 0, 0, 4, 0, 0, 0, 0, 7, 3, 0, 0, 0, 0, 0, 9, 9, 0, 0, 11, 0, 2, 0, 0, 1, 8, 7, 0, 6, 0, 0, 0, 0, 0, 9, 5, 3, 0, 3, 8, 0, 0, 0, 0, 0, 10, 0, 0, 0, 7, 9, 0, 0, 2, 0, 0, 4, 9, 7, 0, 0, 9, 0, 0, 10, 0, 9, 3, 0, 0, 0, 11, 0, 2, 0, 0, 0, 0, 0, 0, 12, 11, 7, 0, 0, 6, 0, 11, 4, 0, 0, 0, 9, 11, 0, 0, 7, 0, 4, 0, 0, 0, 9, 0, 0, 4, 0, 0, 3, 7, 0, 11, 0, 0, 0, 9, 11, 3, 0, 3, 0, 0, 9, 4, 0, 0, 0, 7, 0, 5, 9, 11, 0, 0, 9, 0, 3, 0, 0, 0, 11, 8, 3, 1, 0, 3, 0, 0, 4, 0, 9, 0, 0, 0, 0, 0, 4, 0, 0, 4, 7, 0, 0, 0, 9, 0, 0, 7, 0, 0, 2, 12, 4, 0, 0, 0, 0, 0, 4, 0, 0, 4, 0, 0, 4, 7, 0, 0, 11, 0, 0, 5, 9, 3, 7, 0, 11, 0, 0, 0, 0, 8, 0, 0, 0, 0, 4, 0, 0, 7, 0, 0, 0, 9, 0, 0, 7, 9, 0, 0, 2, 0, 0, 7, 7, 9, 6, 0, 0, 0, 4, 9, 0, 0, 0, 9, 6, 0, 0, 10, 0, 0, 11, 0, 2, 0, 1, 0, 3, 7, 0, 0, 0, 11, 7, 1, 0, 12, 0, 10, 4, 0, 0, 0, 0, 7, 4, 4, 0, 0, 0, 0, 0, 0, 12, 0, 0, 5, 9, 4, 0, 0, 7, 4, 0, 0, 0, 9, 0, 0, 9, 11, 3, 0, 8, 0, 0, 2, 0, 8, 0, 0, 7, 0, 5, 9, 11, 0, 0, 9, 0, 7, 0, 0, 0, 2, 9, 3, 4, 11, 0, 0, 7, 3, 0, 0, 4, 0, 0, 3, 0, 4, 0, 0, 3, 0, 0, 0, 0, 11, 12, 8, 4, 7, 0, 0, 0, 0, 0, 0, 0, 0, 10, 0, 0, 4, 7, 0, 0, 11, 0, 0, 4, 4, 7, 0, 7, 0, 7, 4, 0, 0, 6, 0, 0, 0, 9, 7, 1, 0, 0, 0, 0, 0, 0, 2, 2, 0, 0, 4, 4, 0, 0, 3, 0, 0, 7, 0, 0, 2, 0, 0, 3, 0, 0, 7, 9, 0, 0, 2, 0, 0, 7, 7, 9, 11, 0, 0, 0, 4, 0, 0, 0, 0, 9, 6, 0, 0, 10, 0, 0, 2, 0, 11, 0, 0, 0, 0, 0, 0, 11, 7, 1, 0, 7, 0, 0, 4, 0, 0, 0, 3, 0, 0, 7, 0, 0, 0, 7, 4, 4, 10, 0, 0, 1, 0, 0, 11, 6, 0, 0, 8, 0, 0, 0, 9, 11, 3, 0, 3, 0, 0, 9, 4, 0, 0, 0, 7, 0, 5, 9, 11, 0, 0, 9, 0, 3, 0, 0, 0, 2, 0, 3, 7, 0, 12, 0, 0, 9, 0, 0, 1, 0, 0, 0, 4, 7, 0, 6, 0, 0, 9, 0, 0, 11, 12, 0, 7, 0, 0, 8, 9, 0, 0, 0, 0, 0, 10, 0, 0, 1, 3, 0, 0, 7, 0, 0, 9, 5, 3, 0, 3, 0, 0, 0, 0, 0, 0, 0, 0, 0, 0, 0, 0, 9, 0, 0, 0, 2, 11, 7, 0, 0, 0, 0, 0, 9, 11, 0, 4, 0, 0, 0, 0, 0, 0, 4, 0, 4, 0, 4, 0, 10, 0, 0, 12, 11, 7, 0, 0, 6, 0, 4, 0, 0, 9, 11, 0, 0, 4, 4, 0, 7, 0, 0, 3, 0, 0, 4, 0, 0, 11, 0, 0, 9, 11, 3, 0, 3, 0, 0, 9, 0, 0, 0, 0, 3, 3, 3, 4, 7, 0, 0, 11, 0, 0, 0, 0, 0, 11, 7, 8, 1, 0, 3, 9, 0, 0, 0, 3, 0, 9, 0, 0, 0, 12, 0, 0, 4, 0, 0, 0, 0, 12, 1, 2, 0, 0, 5, 0, 3, 0, 0, 0, 0, 9, 9, 0, 0, 11, 0, 0, 9, 1, 8, 7, 0, 6, 0, 0, 0, 0, 0, 10, 4, 0, 3, 0, 0, 2, 0, 0, 0, 0, 7, 0, 0, 4, 3, 2, 0, 0, 4, 0, 0, 7, 4, 0, 0, 0, 0, 7, 4, 9, 3, 11, 0, 0, 0, 9, 0, 0, 10, 0, 0, 0, 4, 0, 0, 0, 3, 0, 4, 0, 0, 0, 0, 12, 0, 10, 0, 0, 9, 7, 0, 4, 5, 0, 0, 0, 12, 11, 0, 6, 0, 0, 4, 3, 0, 9, 0, 0, 0, 0, 11, 0, 0, 11, 9, 3, 0, 8, 0, 0, 4, 12, 0, 9, 3, 0, 0, 0, 0, 2, 0, 8, 0, 0, 2, 11, 7, 7, 4, 0, 3, 0, 0, 0, 7, 0, 0, 0, 10, 7, 0, 0, 0, 0, 0, 4, 0, 0, 0, 12, 0, 0, 9, 0, 0, 4, 3, 10, 0, 0, 3, 0, 0, 0, 12, 7, 0, 8, 0, 0, 0, 9, 4, 7, 9, 7, 0, 0, 0, 0, 0, 7, 10, 0, 0, 0, 7, 0, 0, 11, 12, 0, 0, 4, 0, 0, 7, 2, 3, 0, 0, 0, 0, 0, 7, 2, 11, 7, 0, 0, 0, 0, 0, 7, 11, 4, 3, 0, 0, 9, 0, 0, 3, 0, 0, 11, 0, 3, 0, 0, 0, 0, 0, 0, 0, 7, 0, 0, 0, 11, 7, 1, 0, 3, 7, 0, 0, 7, 0, 7, 0, 0, 3, 0, 0, 7, 0, 0, 0, 0, 12, 0, 0, 5, 9, 4, 0, 0, 7, 4, 0, 0, 0, 3, 9, 0, 0, 0, 9, 4, 11, 0, 0, 4, 0, 0, 0, 0, 4, 4, 4, 7, 4, 0, 0, 0, 0, 0, 0],
    "nodes_hitrates": [],
    "nodes_missing_value_tracks_true": [1, 1, 1, 1, 0, 1, 1, 0, 0, 0, 0, 1, 1, 1, 0, 0, 0, 1, 0, 0, 1, 1, 1, 1, 0, 0, 0, 1, 1, 0, 0, 0, 1, 1, 0, 0, 1, 1, 0, 0, 0, 1, 1, 1, 1, 1, 0, 0, 0, 0, 1, 1, 1, 1, 0, 0, 0, 0, 0, 1, 1, 1, 1, 0, 1, 0, 0, 1, 1, 0, 0, 1, 0, 0, 0, 1, 1, 0, 0, 0, 1, 1, 1, 1, 0, 1, 0, 0, 1, 1, 0, 0, 1, 0, 1, 0, 0, 1, 1, 0, 0, 0, 1, 0, 1, 0, 1, 1, 0, 0, 0, 1, 1, 1, 1, 0, 0, 1, 0, 1, 0, 0, 1, 1, 1, 0, 0, 0, 0, 1, 1, 1, 1, 0, 1, 0, 0, 1, 0, 0, 0, 1, 0, 0, 1, 1, 1, 0, 1, 0, 0, 1, 0, 0, 1, 1, 0, 0, 1, 0, 1, 0, 1, 0, 0, 1, 1, 1, 1, 0, 0, 1, 0, 0, 1, 0, 0, 1, 1, 1, 0, 1, 0, 0, 1, 1, 0, 0, 0, 1, 1, 0, 0, 1, 0, 0, 1, 1, 1, 1, 1, 1, 0, 0, 0, 1, 1, 0, 0, 0, 1, 1, 1, 0, 0, 0, 1, 1, 0, 0, 1, 0, 0, 1, 1, 0, 1, 0, 0, 0, 1, 0, 0, 1, 1, 1, 0, 1, 0, 0, 1, 1, 1, 0, 0, 1, 0, 1, 0, 0, 1, 1, 0, 0, 1, 0, 0, 1, 0, 1, 0, 1, 1, 0, 0, 0, 1, 1, 1, 1, 0, 0, 1, 0, 1, 1, 0, 0, 0, 1, 1, 1, 0, 0, 0, 0, 1, 1, 1, 0, 0, 1, 0, 0, 1, 0, 1, 1, 0, 1, 0, 0, 0, 1, 1, 1, 0, 1, 0, 0, 1, 1, 0, 0, 0, 1, 1, 0, 1, 0, 0, 1, 0, 1, 0, 1, 0, 0, 1, 1, 1, 1, 0, 1, 0, 0, 0, 1, 1, 0, 0, 0, 1, 1, 1, 0, 1, 0, 0, 1, 1, 0, 0, 1, 0, 0, 1, 1, 0, 0, 1, 0, 1, 0, 0, 1, 1, 1, 1, 1, 1, 0, 0, 0, 1, 1, 0, 0, 0, 1, 1, 1, 0, 0, 0, 1, 1, 0, 0, 1, 0, 0, 1, 1, 1, 0, 0, 0, 0, 1, 0, 0, 1, 1, 1, 0, 1, 0, 0, 1, 1, 1, 1, 0, 0, 0, 1, 0, 0, 1, 1, 0, 1, 0, 0, 0, 1, 0, 1, 0, 1, 1, 0, 0, 0, 1, 1, 1, 1, 0, 0, 1, 0, 1, 0, 0, 1, 1, 1, 1, 0, 0, 0, 0, 0, 1, 1, 0, 0, 1, 1, 0, 0, 1, 1, 1, 0, 0, 1, 0, 0, 1, 0, 0, 1, 1, 1, 0, 1, 0, 0, 1, 1, 0, 0, 0, 1, 0, 1, 1, 0, 0, 1, 1, 0, 0, 1, 0, 0, 1, 1, 1, 1, 1, 0, 1, 0, 0, 1, 0, 0, 1, 0, 1, 0, 0, 1, 0, 0, 1, 1, 1, 0, 1, 0, 0, 1, 1, 0, 0, 1, 0, 0, 1, 1, 0, 0, 1, 0, 0, 1, 1, 1, 1, 1, 1, 0, 0, 0, 1, 1, 0, 0, 0, 1, 1, 1, 0, 0, 1, 0, 0, 1, 1, 0, 0, 0, 1, 1, 0, 1, 0, 0, 0, 1, 0, 0, 1, 1, 1, 0, 1, 0, 0, 1, 1, 1, 1, 0, 0, 0, 1, 0, 0, 1, 1, 0, 0, 1, 0, 0, 1, 0, 1, 0, 1, 0, 1, 1, 0, 0, 0, 1, 1, 1, 1, 0, 0, 1, 1, 1, 0, 0, 0, 0, 1, 1, 1, 1, 0, 0, 0, 0, 0, 1, 1, 0, 0, 1, 1, 1, 0, 0, 1, 1, 0, 0, 0, 1, 0, 0, 1, 1, 1, 0, 1, 0, 0, 1, 0, 1, 0, 0, 1, 1, 0, 1, 0, 0, 1, 0, 1, 0, 1, 0, 0, 1, 1, 1, 1, 0, 1, 1, 0, 0, 1, 0, 0, 0, 1, 1, 0, 0, 0, 1, 1, 1, 0, 1, 0, 1, 0, 0, 1, 1, 0, 0, 1, 0, 0, 1, 1, 0, 0, 1, 0, 1, 0, 0, 1, 1, 1, 0, 1, 0, 0, 1, 0, 0, 1, 1, 1, 0, 1, 1, 0, 0, 1, 0, 0, 1, 0, 0, 0, 1, 1, 1, 0, 1, 0, 0, 1, 1, 1, 0, 0, 1, 0, 0, 1, 0, 1, 1, 0, 0, 0, 1, 0, 1, 0, 1, 1, 0, 0, 0, 1, 1, 1, 0, 0, 1, 0, 1, 1, 0, 0, 0, 1, 1, 0, 0, 1, 1, 1, 1, 0, 0, 1, 0, 0, 1, 0, 0, 1, 1, 0, 1, 0, 0, 0, 1, 1, 1, 0, 1, 0, 0, 1, 1, 0, 0, 0, 1, 0, 1, 1, 1, 0, 0, 1, 0, 1, 0, 0, 0, 1, 1, 1, 1, 0, 1, 0, 0, 1, 1, 1, 0, 0, 1, 0, 0, 1, 0, 0, 1, 1, 1, 0, 0, 1, 0, 0, 1, 0, 0, 1, 1, 1, 1, 1, 0, 0, 0, 1, 0, 0, 1, 0, 0, 1, 1, 0, 0, 1, 0, 0, 1, 1, 1, 1, 1, 1, 0, 0, 0, 0, 1, 1, 0, 0, 0, 1, 1, 0, 1, 0, 0, 0, 1, 0, 0, 1, 1, 1, 0, 1, 0, 0, 1, 1, 1, 1, 0, 0, 0, 1, 1, 0, 0, 0, 1, 1, 0, 0, 1, 0, 0, 1, 0, 1, 0, 1, 0, 1, 1, 0, 0, 0, 1, 1, 1, 0, 1, 0, 1, 1, 0, 0, 0, 1, 1, 1, 1, 0, 0, 0, 0, 0, 1, 1, 0, 0, 1, 1, 1, 0, 0, 1, 1, 0, 0, 0, 1, 0, 0, 1, 1, 1, 0, 1, 0, 0, 1, 0, 1, 0, 0, 1, 0, 1, 1, 1, 0, 0, 1, 0, 1, 0, 0, 0, 1, 1, 1, 1, 1, 0, 0, 1, 1, 0, 0, 1, 0, 0, 1, 0, 1, 0, 0, 1, 1, 0, 0, 0, 1, 1, 1, 1, 1, 0, 0, 0, 1, 0, 0, 1, 0, 1, 0, 0, 1, 1, 0, 0, 1, 0, 0, 1, 1, 1, 0, 1, 0, 1, 1, 0, 0, 1, 0, 0, 1, 1, 1, 1, 0, 0, 1, 0, 0, 0, 1, 1, 0, 0, 1, 1, 0, 0, 1, 0, 0, 1, 1, 0, 1, 0, 0, 1, 0, 0, 1, 1, 1, 0, 1, 0, 0, 1, 1, 1, 1, 0, 0, 0, 1, 1, 0, 0, 0, 1, 1, 0, 0, 1, 0, 0, 1, 0, 1, 0, 1, 1, 0, 0, 0, 1, 1, 1, 0, 1, 0, 1, 1, 0, 0, 0, 1, 1, 0, 1, 0, 0, 0, 1, 1, 1, 1, 0, 0, 1, 0, 0, 1, 1, 0, 0, 1, 0, 0, 0, 1, 1, 1, 0, 1, 0, 0, 1, 1, 0, 0, 0, 1, 0, 1, 1, 1, 0, 0, 1, 0, 1, 0, 0, 0, 1, 1, 1, 1, 0, 1, 0, 0, 1, 0, 0, 1, 1, 0, 0, 1, 1, 0, 1, 0, 0, 1, 0, 0, 1, 1, 1, 1, 0, 0, 1, 1, 0, 0, 0, 1, 0, 1, 0, 0, 1, 1, 0, 0, 1, 0, 0, 1, 1, 1, 0, 1, 1, 0, 1, 0, 0, 1, 1, 0, 0, 1, 0, 0, 1, 0, 0, 0, 1, 1, 1, 0, 0, 1, 0, 0, 1, 1, 1, 1, 0, 0, 1, 0, 0, 0, 1, 0, 1, 0, 1, 0, 1, 0, 0, 1, 1, 1, 0, 0, 1, 0, 1, 0, 0, 1, 1, 0, 0, 1, 1, 1, 1, 0, 0, 1, 0, 0, 1, 0, 0, 1, 0, 0, 1, 1, 1, 0, 1, 0, 0, 1, 1, 0, 0, 0, 1, 1, 1, 1, 1, 0, 0, 1, 0, 0, 0, 0, 0, 1, 1, 1, 1, 0, 1, 1, 0, 0, 0, 1, 0, 1, 0, 0, 1, 1, 0, 1, 1, 0, 0, 0, 0, 1, 1, 1, 0, 0, 1, 1, 1, 0, 0, 0, 0, 1, 1, 0, 0, 1, 0, 0, 1, 1, 1, 1, 0, 1, 0, 0, 1, 0, 0, 1, 1, 1, 1, 0, 0, 1, 0, 0, 1, 0, 1, 0, 0, 1, 1, 1, 0, 0, 1, 0, 0, 1, 1, 0, 0, 0, 0, 1, 1, 1, 1, 1, 0, 0, 0, 1, 0, 0, 1, 1, 0, 0, 1, 1, 0, 0, 1, 0, 1, 0, 0, 1, 0, 1, 0, 1, 0, 0, 1, 1, 0, 1, 1, 0, 0, 0, 1, 1, 0, 1, 0, 0, 1, 1, 1, 1, 0, 0, 0, 0, 1, 0, 0, 1, 1, 1, 0, 1, 0, 0, 1, 1, 0, 1, 1, 0, 0, 0, 0, 1, 0, 1, 0, 0, 1, 1, 1, 1, 1, 0, 1, 0, 0, 1, 1, 0, 0, 0, 1, 1, 0, 0, 0, 1, 1, 1, 0, 0, 0, 1, 0, 0, 1, 1, 0, 1, 1, 1, 0, 0, 1, 0, 0, 0, 1, 1, 0, 1, 0, 0, 0, 1, 1, 1, 1, 1, 0, 0, 1, 0, 0, 1, 1, 1, 0, 0, 1, 0, 0, 1, 1, 0, 0, 1, 0, 0, 1, 1, 1, 0, 0, 0, 0, 0, 1, 1, 1, 1, 0, 0, 1, 0, 0, 1, 1, 1, 1, 0, 0, 1, 0, 0, 1, 0, 0, 1, 0, 1, 0, 1, 0, 0, 1, 0, 1, 1, 0, 0, 0, 1, 1, 1, 0, 1, 1, 0, 0, 1, 0, 1, 0, 0, 1, 1, 0, 1, 0, 0, 0, 1, 1, 0, 0, 1, 1, 1, 0, 0, 1, 1, 0, 0, 0, 1, 1, 0, 0, 0, 1, 1, 1, 0, 0, 1, 0, 1, 0, 0, 1, 1, 1, 1, 1, 0, 0, 0, 0, 0, 0],
    "nodes_modes": ['BRANCH_LT', 'BRANCH_LT', 'BRANCH_LT', 'BRANCH_LT', 'LEAF', 'BRANCH_LT', 'BRANCH_LT', 'LEAF', 'LEAF', 'LEAF', 'LEAF', 'BRANCH_LT', 'BRANCH_LT', 'BRANCH_LT', 'LEAF', 'LEAF', 'LEAF', 'BRANCH_LT', 'LEAF', 'LEAF', 'BRANCH_LT', 'BRANCH_LT', 'BRANCH_LT', 'BRANCH_LT', 'LEAF', 'LEAF', 'LEAF', 'BRANCH_LT', 'BRANCH_LT', 'LEAF', 'LEAF', 'LEAF', 'BRANCH_LT', 'BRANCH_LT', 'LEAF', 'LEAF', 'BRANCH_LT', 'BRANCH_LT', 'LEAF', 'LEAF', 'LEAF', 'BRANCH_LT', 'BRANCH_LT', 'BRANCH_LT', 'BRANCH_LT', 'BRANCH_LT', 'LEAF', 'LEAF', 'LEAF', 'LEAF', 'BRANCH_LT', 'BRANCH_LT', 'BRANCH_LT', 'BRANCH_LT', 'LEAF', 'LEAF', 'LEAF', 'LEAF', 'LEAF', 'BRANCH_LT', 'BRANCH_LT', 'BRANCH_LT', 'BRANCH_LT', 'LEAF', 'BRANCH_LT', 'LEAF', 'LEAF', 'BRANCH_LT', 'BRANCH_LT', 'LEAF', 'LEAF', 'BRANCH_LT', 'LEAF', 'LEAF', 'LEAF', 'BRANCH_LT', 'BRANCH_LT', 'LEAF', 'LEAF', 'LEAF', 'BRANCH_LT', 'BRANCH_LT', 'BRANCH_LT', 'BRANCH_LT', 'LEAF', 'BRANCH_LT', 'LEAF', 'LEAF', 'BRANCH_LT', 'BRANCH_LT', 'LEAF', 'LEAF', 'BRANCH_LT', 'LEAF', 'BRANCH_LT', 'LEAF', 'LEAF', 'BRANCH_LT', 'BRANCH_LT', 'LEAF', 'LEAF', 'LEAF', 'BRANCH_LT', 'LEAF', 'BRANCH_LT', 'LEAF', 'BRANCH_LT', 'BRANCH_LT', 'LEAF', 'LEAF', 'LEAF', 'BRANCH_LT', 'BRANCH_LT', 'BRANCH_LT', 'BRANCH_LT', 'LEAF', 'LEAF', 'BRANCH_LT', 'LEAF', 'BRANCH_LT', 'LEAF', 'LEAF', 'BRANCH_LT', 'BRANCH_LT', 'BRANCH_LT', 'LEAF', 'LEAF', 'LEAF', 'LEAF', 'BRANCH_LT', 'BRANCH_LT', 'BRANCH_LT', 'BRANCH_LT', 'LEAF', 'BRANCH_LT', 'LEAF', 'LEAF', 'BRANCH_LT', 'LEAF', 'LEAF', 'LEAF', 'BRANCH_LT', 'LEAF', 'LEAF', 'BRANCH_LT', 'BRANCH_LT', 'BRANCH_LT', 'LEAF', 'BRANCH_LT', 'LEAF', 'LEAF', 'BRANCH_LT', 'LEAF', 'LEAF', 'BRANCH_LT', 'BRANCH_LT', 'LEAF', 'LEAF', 'BRANCH_LT', 'LEAF', 'BRANCH_LT', 'LEAF', 'BRANCH_LT', 'LEAF', 'LEAF', 'BRANCH_LT', 'BRANCH_LT', 'BRANCH_LT', 'BRANCH_LT', 'LEAF', 'LEAF', 'BRANCH_LT', 'LEAF', 'LEAF', 'BRANCH_LT', 'LEAF', 'LEAF', 'BRANCH_LT', 'BRANCH_LT', 'BRANCH_LT', 'LEAF', 'BRANCH_LT', 'LEAF', 'LEAF', 'BRANCH_LT', 'BRANCH_LT', 'LEAF', 'LEAF', 'LEAF', 'BRANCH_LT', 'BRANCH_LT', 'LEAF', 'LEAF', 'BRANCH_LT', 'LEAF', 'LEAF', 'BRANCH_LT', 'BRANCH_LT', 'BRANCH_LT', 'BRANCH_LT', 'BRANCH_LT', 'BRANCH_LT', 'LEAF', 'LEAF', 'LEAF', 'BRANCH_LT', 'BRANCH_LT', 'LEAF', 'LEAF', 'LEAF', 'BRANCH_LT', 'BRANCH_LT', 'BRANCH_LT', 'LEAF', 'LEAF', 'LEAF', 'BRANCH_LT', 'BRANCH_LT', 'LEAF', 'LEAF', 'BRANCH_LT', 'LEAF', 'LEAF', 'BRANCH_LT', 'BRANCH_LT', 'LEAF', 'BRANCH_LT', 'LEAF', 'LEAF', 'LEAF', 'BRANCH_LT', 'LEAF', 'LEAF', 'BRANCH_LT', 'BRANCH_LT', 'BRANCH_LT', 'LEAF', 'BRANCH_LT', 'LEAF', 'LEAF', 'BRANCH_LT', 'BRANCH_LT', 'BRANCH_LT', 'LEAF', 'LEAF', 'BRANCH_LT', 'LEAF', 'BRANCH_LT', 'LEAF', 'LEAF', 'BRANCH_LT', 'BRANCH_LT', 'LEAF', 'LEAF', 'BRANCH_LT', 'LEAF', 'LEAF', 'BRANCH_LT', 'LEAF', 'BRANCH_LT', 'LEAF', 'BRANCH_LT', 'BRANCH_LT', 'LEAF', 'LEAF', 'LEAF', 'BRANCH_LT', 'BRANCH_LT', 'BRANCH_LT', 'BRANCH_LT', 'LEAF', 'LEAF', 'BRANCH_LT', 'LEAF', 'BRANCH_LT', 'BRANCH_LT', 'LEAF', 'LEAF', 'LEAF', 'BRANCH_LT', 'BRANCH_LT', 'BRANCH_LT', 'LEAF', 'LEAF', 'LEAF', 'LEAF', 'BRANCH_LT', 'BRANCH_LT', 'BRANCH_LT', 'LEAF', 'LEAF', 'BRANCH_LT', 'LEAF', 'LEAF', 'BRANCH_LT', 'LEAF', 'BRANCH_LT', 'BRANCH_LT', 'LEAF', 'BRANCH_LT', 'LEAF', 'LEAF', 'LEAF', 'BRANCH_LT', 'BRANCH_LT', 'BRANCH_LT', 'LEAF', 'BRANCH_LT', 'LEAF', 'LEAF', 'BRANCH_LT', 'BRANCH_LT', 'LEAF', 'LEAF', 'LEAF', 'BRANCH_LT', 'BRANCH_LT', 'LEAF', 'BRANCH_LT', 'LEAF', 'LEAF', 'BRANCH_LT', 'LEAF', 'BRANCH_LT', 'LEAF', 'BRANCH_LT', 'LEAF', 'LEAF', 'BRANCH_LT', 'BRANCH_LT', 'BRANCH_LT', 'BRANCH_LT', 'LEAF', 'BRANCH_LT', 'LEAF', 'LEAF', 'LEAF', 'BRANCH_LT', 'BRANCH_LT', 'LEAF', 'LEAF', 'LEAF', 'BRANCH_LT', 'BRANCH_LT', 'BRANCH_LT', 'LEAF', 'BRANCH_LT', 'LEAF', 'LEAF', 'BRANCH_LT', 'BRANCH_LT', 'LEAF', 'LEAF', 'BRANCH_LT', 'LEAF', 'LEAF', 'BRANCH_LT', 'BRANCH_LT', 'LEAF', 'LEAF', 'BRANCH_LT', 'LEAF', 'BRANCH_LT', 'LEAF', 'LEAF', 'BRANCH_LT', 'BRANCH_LT', 'BRANCH_LT', 'BRANCH_LT', 'BRANCH_LT', 'BRANCH_LT', 'LEAF', 'LEAF', 'LEAF', 'BRANCH_LT', 'BRANCH_LT', 'LEAF', 'LEAF', 'LEAF', 'BRANCH_LT', 'BRANCH_LT', 'BRANCH_LT', 'LEAF', 'LEAF', 'LEAF', 'BRANCH_LT', 'BRANCH_LT', 'LEAF', 'LEAF', 'BRANCH_LT', 'LEAF', 'LEAF', 'BRANCH_LT', 'BRANCH_LT', 'BRANCH_LT', 'LEAF', 'LEAF', 'LEAF', 'LEAF', 'BRANCH_LT', 'LEAF', 'LEAF', 'BRANCH_LT', 'BRANCH_LT', 'BRANCH_LT', 'LEAF', 'BRANCH_LT', 'LEAF', 'LEAF', 'BRANCH_LT', 'BRANCH_LT', 'BRANCH_LT', 'BRANCH_LT', 'LEAF', 'LEAF', 'LEAF', 'BRANCH_LT', 'LEAF', 'LEAF', 'BRANCH_LT', 'BRANCH_LT', 'LEAF', 'BRANCH_LT', 'LEAF', 'LEAF', 'LEAF', 'BRANCH_LT', 'LEAF', 'BRANCH_LT', 'LEAF', 'BRANCH_LT', 'BRANCH_LT', 'LEAF', 'LEAF', 'LEAF', 'BRANCH_LT', 'BRANCH_LT', 'BRANCH_LT', 'BRANCH_LT', 'LEAF', 'LEAF', 'BRANCH_LT', 'LEAF', 'BRANCH_LT', 'LEAF', 'LEAF', 'BRANCH_LT', 'BRANCH_LT', 'BRANCH_LT', 'BRANCH_LT', 'LEAF', 'LEAF', 'LEAF', 'LEAF', 'LEAF', 'BRANCH_LT', 'BRANCH_LT', 'LEAF', 'LEAF', 'BRANCH_LT', 'BRANCH_LT', 'LEAF', 'LEAF', 'BRANCH_LT', 'BRANCH_LT', 'BRANCH_LT', 'LEAF', 'LEAF', 'BRANCH_LT', 'LEAF', 'LEAF', 'BRANCH_LT', 'LEAF', 'LEAF', 'BRANCH_LT', 'BRANCH_LT', 'BRANCH_LT', 'LEAF', 'BRANCH_LT', 'LEAF', 'LEAF', 'BRANCH_LT', 'BRANCH_LT', 'LEAF', 'LEAF', 'LEAF', 'BRANCH_LT', 'LEAF', 'BRANCH_LT', 'BRANCH_LT', 'LEAF', 'LEAF', 'BRANCH_LT', 'BRANCH_LT', 'LEAF', 'LEAF', 'BRANCH_LT', 'LEAF', 'LEAF', 'BRANCH_LT', 'BRANCH_LT', 'BRANCH_LT', 'BRANCH_LT', 'BRANCH_LT', 'LEAF', 'BRANCH_LT', 'LEAF', 'LEAF', 'BRANCH_LT', 'LEAF', 'LEAF', 'BRANCH_LT', 'LEAF', 'BRANCH_LT', 'LEAF', 'LEAF', 'BRANCH_LT', 'LEAF', 'LEAF', 'BRANCH_LT', 'BRANCH_LT', 'BRANCH_LT', 'LEAF', 'BRANCH_LT', 'LEAF', 'LEAF', 'BRANCH_LT', 'BRANCH_LT', 'LEAF', 'LEAF', 'BRANCH_LT', 'LEAF', 'LEAF', 'BRANCH_LT', 'BRANCH_LT', 'LEAF', 'LEAF', 'BRANCH_LT', 'LEAF', 'LEAF', 'BRANCH_LT', 'BRANCH_LT', 'BRANCH_LT', 'BRANCH_LT', 'BRANCH_LT', 'BRANCH_LT', 'LEAF', 'LEAF', 'LEAF', 'BRANCH_LT', 'BRANCH_LT', 'LEAF', 'LEAF', 'LEAF', 'BRANCH_LT', 'BRANCH_LT', 'BRANCH_LT', 'LEAF', 'LEAF', 'BRANCH_LT', 'LEAF', 'LEAF', 'BRANCH_LT', 'BRANCH_LT', 'LEAF', 'LEAF', 'LEAF', 'BRANCH_LT', 'BRANCH_LT', 'LEAF', 'BRANCH_LT', 'LEAF', 'LEAF', 'LEAF', 'BRANCH_LT', 'LEAF', 'LEAF', 'BRANCH_LT', 'BRANCH_LT', 'BRANCH_LT', 'LEAF', 'BRANCH_LT', 'LEAF', 'LEAF', 'BRANCH_LT', 'BRANCH_LT', 'BRANCH_LT', 'BRANCH_LT', 'LEAF', 'LEAF', 'LEAF', 'BRANCH_LT', 'LEAF', 'LEAF', 'BRANCH_LT', 'BRANCH_LT', 'LEAF', 'LEAF', 'BRANCH_LT', 'LEAF', 'LEAF', 'BRANCH_LT', 'LEAF', 'BRANCH_LT', 'LEAF', 'BRANCH_LT', 'LEAF', 'BRANCH_LT', 'BRANCH_LT', 'LEAF', 'LEAF', 'LEAF', 'BRANCH_LT', 'BRANCH_LT', 'BRANCH_LT', 'BRANCH_LT', 'LEAF', 'LEAF', 'BRANCH_LT', 'BRANCH_LT', 'BRANCH_LT', 'LEAF', 'LEAF', 'LEAF', 'LEAF', 'BRANCH_LT', 'BRANCH_LT', 'BRANCH_LT', 'BRANCH_LT', 'LEAF', 'LEAF', 'LEAF', 'LEAF', 'LEAF', 'BRANCH_LT', 'BRANCH_LT', 'LEAF', 'LEAF', 'BRANCH_LT', 'BRANCH_LT', 'BRANCH_LT', 'LEAF', 'LEAF', 'BRANCH_LT', 'BRANCH_LT', 'LEAF', 'LEAF', 'LEAF', 'BRANCH_LT', 'LEAF', 'LEAF', 'BRANCH_LT', 'BRANCH_LT', 'BRANCH_LT', 'LEAF', 'BRANCH_LT', 'LEAF', 'LEAF', 'BRANCH_LT', 'LEAF', 'BRANCH_LT', 'LEAF', 'LEAF', 'BRANCH_LT', 'BRANCH_LT', 'LEAF', 'BRANCH_LT', 'LEAF', 'LEAF', 'BRANCH_LT', 'LEAF', 'BRANCH_LT', 'LEAF', 'BRANCH_LT', 'LEAF', 'LEAF', 'BRANCH_LT', 'BRANCH_LT', 'BRANCH_LT', 'BRANCH_LT', 'LEAF', 'BRANCH_LT', 'BRANCH_LT', 'LEAF', 'LEAF', 'BRANCH_LT', 'LEAF', 'LEAF', 'LEAF', 'BRANCH_LT', 'BRANCH_LT', 'LEAF', 'LEAF', 'LEAF', 'BRANCH_LT', 'BRANCH_LT', 'BRANCH_LT', 'LEAF', 'BRANCH_LT', 'LEAF', 'BRANCH_LT', 'LEAF', 'LEAF', 'BRANCH_LT', 'BRANCH_LT', 'LEAF', 'LEAF', 'BRANCH_LT', 'LEAF', 'LEAF', 'BRANCH_LT', 'BRANCH_LT', 'LEAF', 'LEAF', 'BRANCH_LT', 'LEAF', 'BRANCH_LT', 'LEAF', 'LEAF', 'BRANCH_LT', 'BRANCH_LT', 'BRANCH_LT', 'LEAF', 'BRANCH_LT', 'LEAF', 'LEAF', 'BRANCH_LT', 'LEAF', 'LEAF', 'BRANCH_LT', 'BRANCH_LT', 'BRANCH_LT', 'LEAF', 'BRANCH_LT', 'BRANCH_LT', 'LEAF', 'LEAF', 'BRANCH_LT', 'LEAF', 'LEAF', 'BRANCH_LT', 'LEAF', 'LEAF', 'LEAF', 'BRANCH_LT', 'BRANCH_LT', 'BRANCH_LT', 'LEAF', 'BRANCH_LT', 'LEAF', 'LEAF', 'BRANCH_LT', 'BRANCH_LT', 'BRANCH_LT', 'LEAF', 'LEAF', 'BRANCH_LT', 'LEAF', 'LEAF', 'BRANCH_LT', 'LEAF', 'BRANCH_LT', 'BRANCH_LT', 'LEAF', 'LEAF', 'LEAF', 'BRANCH_LT', 'LEAF', 'BRANCH_LT', 'LEAF', 'BRANCH_LT', 'BRANCH_LT', 'LEAF', 'LEAF', 'LEAF', 'BRANCH_LT', 'BRANCH_LT', 'BRANCH_LT', 'LEAF', 'LEAF', 'BRANCH_LT', 'LEAF', 'BRANCH_LT', 'BRANCH_LT', 'LEAF', 'LEAF', 'LEAF', 'BRANCH_LT', 'BRANCH_LT', 'LEAF', 'LEAF', 'BRANCH_LT', 'BRANCH_LT', 'BRANCH_LT', 'BRANCH_LT', 'LEAF', 'LEAF', 'BRANCH_LT', 'LEAF', 'LEAF', 'BRANCH_LT', 'LEAF', 'LEAF', 'BRANCH_LT', 'BRANCH_LT', 'LEAF', 'BRANCH_LT', 'LEAF', 'LEAF', 'LEAF', 'BRANCH_LT', 'BRANCH_LT', 'BRANCH_LT', 'LEAF', 'BRANCH_LT', 'LEAF', 'LEAF', 'BRANCH_LT', 'BRANCH_LT', 'LEAF', 'LEAF', 'LEAF', 'BRANCH_LT', 'LEAF', 'BRANCH_LT', 'BRANCH_LT', 'BRANCH_LT', 'LEAF', 'LEAF', 'BRANCH_LT', 'LEAF', 'BRANCH_LT', 'LEAF', 'LEAF', 'LEAF', 'BRANCH_LT', 'BRANCH_LT', 'BRANCH_LT', 'BRANCH_LT', 'LEAF', 'BRANCH_LT', 'LEAF', 'LEAF', 'BRANCH_LT', 'BRANCH_LT', 'BRANCH_LT', 'LEAF', 'LEAF', 'BRANCH_LT', 'LEAF', 'LEAF', 'BRANCH_LT', 'LEAF', 'LEAF', 'BRANCH_LT', 'BRANCH_LT', 'BRANCH_LT', 'LEAF', 'LEAF', 'BRANCH_LT', 'LEAF', 'LEAF', 'BRANCH_LT', 'LEAF', 'LEAF', 'BRANCH_LT', 'BRANCH_LT', 'BRANCH_LT', 'BRANCH_LT', 'BRANCH_LT', 'LEAF', 'LEAF', 'LEAF', 'BRANCH_LT', 'LEAF', 'LEAF', 'BRANCH_LT', 'LEAF', 'LEAF', 'BRANCH_LT', 'BRANCH_LT', 'LEAF', 'LEAF', 'BRANCH_LT', 'LEAF', 'LEAF', 'BRANCH_LT', 'BRANCH_LT', 'BRANCH_LT', 'BRANCH_LT', 'BRANCH_LT', 'BRANCH_LT', 'LEAF', 'LEAF', 'LEAF', 'LEAF', 'BRANCH_LT', 'BRANCH_LT', 'LEAF', 'LEAF', 'LEAF', 'BRANCH_LT', 'BRANCH_LT', 'LEAF', 'BRANCH_LT', 'LEAF', 'LEAF', 'LEAF', 'BRANCH_LT', 'LEAF', 'LEAF', 'BRANCH_LT', 'BRANCH_LT', 'BRANCH_LT', 'LEAF', 'BRANCH_LT', 'LEAF', 'LEAF', 'BRANCH_LT', 'BRANCH_LT', 'BRANCH_LT', 'BRANCH_LT', 'LEAF', 'LEAF', 'LEAF', 'BRANCH_LT', 'BRANCH_LT', 'LEAF', 'LEAF', 'LEAF', 'BRANCH_LT', 'BRANCH_LT', 'LEAF', 'LEAF', 'BRANCH_LT', 'LEAF', 'LEAF', 'BRANCH_LT', 'LEAF', 'BRANCH_LT', 'LEAF', 'BRANCH_LT', 'LEAF', 'BRANCH_LT', 'BRANCH_LT', 'LEAF', 'LEAF', 'LEAF', 'BRANCH_LT', 'BRANCH_LT', 'BRANCH_LT', 'LEAF', 'BRANCH_LT', 'LEAF', 'BRANCH_LT', 'BRANCH_LT', 'LEAF', 'LEAF', 'LEAF', 'BRANCH_LT', 'BRANCH_LT', 'BRANCH_LT', 'BRANCH_LT', 'LEAF', 'LEAF', 'LEAF', 'LEAF', 'LEAF', 'BRANCH_LT', 'BRANCH_LT', 'LEAF', 'LEAF', 'BRANCH_LT', 'BRANCH_LT', 'BRANCH_LT', 'LEAF', 'LEAF', 'BRANCH_LT', 'BRANCH_LT', 'LEAF', 'LEAF', 'LEAF', 'BRANCH_LT', 'LEAF', 'LEAF', 'BRANCH_LT', 'BRANCH_LT', 'BRANCH_LT', 'LEAF', 'BRANCH_LT', 'LEAF', 'LEAF', 'BRANCH_LT', 'LEAF', 'BRANCH_LT', 'LEAF', 'LEAF', 'BRANCH_LT', 'LEAF', 'BRANCH_LT', 'BRANCH_LT', 'BRANCH_LT', 'LEAF', 'LEAF', 'BRANCH_LT', 'LEAF', 'BRANCH_LT', 'LEAF', 'LEAF', 'LEAF', 'BRANCH_LT', 'BRANCH_LT', 'BRANCH_LT', 'BRANCH_LT', 'BRANCH_LT', 'LEAF', 'LEAF', 'BRANCH_LT', 'BRANCH_LT', 'LEAF', 'LEAF', 'BRANCH_LT', 'LEAF', 'LEAF', 'BRANCH_LT', 'LEAF', 'BRANCH_LT', 'LEAF', 'LEAF', 'BRANCH_LT', 'BRANCH_LT', 'LEAF', 'LEAF', 'LEAF', 'BRANCH_LT', 'BRANCH_LT', 'BRANCH_LT', 'BRANCH_LT', 'BRANCH_LT', 'LEAF', 'LEAF', 'LEAF', 'BRANCH_LT', 'LEAF', 'LEAF', 'BRANCH_LT', 'LEAF', 'BRANCH_LT', 'LEAF', 'LEAF', 'BRANCH_LT', 'BRANCH_LT', 'LEAF', 'LEAF', 'BRANCH_LT', 'LEAF', 'LEAF', 'BRANCH_LT', 'BRANCH_LT', 'BRANCH_LT', 'LEAF', 'BRANCH_LT', 'LEAF', 'BRANCH_LT', 'BRANCH_LT', 'LEAF', 'LEAF', 'BRANCH_LT', 'LEAF', 'LEAF', 'BRANCH_LT', 'BRANCH_LT', 'BRANCH_LT', 'BRANCH_LT', 'LEAF', 'LEAF', 'BRANCH_LT', 'LEAF', 'LEAF', 'LEAF', 'BRANCH_LT', 'BRANCH_LT', 'LEAF', 'LEAF', 'BRANCH_LT', 'BRANCH_LT', 'LEAF', 'LEAF', 'BRANCH_LT', 'LEAF', 'LEAF', 'BRANCH_LT', 'BRANCH_LT', 'LEAF', 'BRANCH_LT', 'LEAF', 'LEAF', 'BRANCH_LT', 'LEAF', 'LEAF', 'BRANCH_LT', 'BRANCH_LT', 'BRANCH_LT', 'LEAF', 'BRANCH_LT', 'LEAF', 'LEAF', 'BRANCH_LT', 'BRANCH_LT', 'BRANCH_LT', 'BRANCH_LT', 'LEAF', 'LEAF', 'LEAF', 'BRANCH_LT', 'BRANCH_LT', 'LEAF', 'LEAF', 'LEAF', 'BRANCH_LT', 'BRANCH_LT', 'LEAF', 'LEAF', 'BRANCH_LT', 'LEAF', 'LEAF', 'BRANCH_LT', 'LEAF', 'BRANCH_LT', 'LEAF', 'BRANCH_LT', 'BRANCH_LT', 'LEAF', 'LEAF', 'LEAF', 'BRANCH_LT', 'BRANCH_LT', 'BRANCH_LT', 'LEAF', 'BRANCH_LT', 'LEAF', 'BRANCH_LT', 'BRANCH_LT', 'LEAF', 'LEAF', 'LEAF', 'BRANCH_LT', 'BRANCH_LT', 'LEAF', 'BRANCH_LT', 'LEAF', 'LEAF', 'LEAF', 'BRANCH_LT', 'BRANCH_LT', 'BRANCH_LT', 'BRANCH_LT', 'LEAF', 'LEAF', 'BRANCH_LT', 'LEAF', 'LEAF', 'BRANCH_LT', 'BRANCH_LT', 'LEAF', 'LEAF', 'BRANCH_LT', 'LEAF', 'LEAF', 'LEAF', 'BRANCH_LT', 'BRANCH_LT', 'BRANCH_LT', 'LEAF', 'BRANCH_LT', 'LEAF', 'LEAF', 'BRANCH_LT', 'BRANCH_LT', 'LEAF', 'LEAF', 'LEAF', 'BRANCH_LT', 'LEAF', 'BRANCH_LT', 'BRANCH_LT', 'BRANCH_LT', 'LEAF', 'LEAF', 'BRANCH_LT', 'LEAF', 'BRANCH_LT', 'LEAF', 'LEAF', 'LEAF', 'BRANCH_LT', 'BRANCH_LT', 'BRANCH_LT', 'BRANCH_LT', 'LEAF', 'BRANCH_LT', 'LEAF', 'LEAF', 'BRANCH_LT', 'LEAF', 'LEAF', 'BRANCH_LT', 'BRANCH_LT', 'LEAF', 'LEAF', 'BRANCH_LT', 'BRANCH_LT', 'LEAF', 'BRANCH_LT', 'LEAF', 'LEAF', 'BRANCH_LT', 'LEAF', 'LEAF', 'BRANCH_LT', 'BRANCH_LT', 'BRANCH_LT', 'BRANCH_LT', 'LEAF', 'LEAF', 'BRANCH_LT', 'BRANCH_LT', 'LEAF', 'LEAF', 'LEAF', 'BRANCH_LT', 'LEAF', 'BRANCH_LT', 'LEAF', 'LEAF', 'BRANCH_LT', 'BRANCH_LT', 'LEAF', 'LEAF', 'BRANCH_LT', 'LEAF', 'LEAF', 'BRANCH_LT', 'BRANCH_LT', 'BRANCH_LT', 'LEAF', 'BRANCH_LT', 'BRANCH_LT', 'LEAF', 'BRANCH_LT', 'LEAF', 'LEAF', 'BRANCH_LT', 'BRANCH_LT', 'LEAF', 'LEAF', 'BRANCH_LT', 'LEAF', 'LEAF', 'BRANCH_LT', 'LEAF', 'LEAF', 'LEAF', 'BRANCH_LT', 'BRANCH_LT', 'BRANCH_LT', 'LEAF', 'LEAF', 'BRANCH_LT', 'LEAF', 'LEAF', 'BRANCH_LT', 'BRANCH_LT', 'BRANCH_LT', 'BRANCH_LT', 'LEAF', 'LEAF', 'BRANCH_LT', 'LEAF', 'LEAF', 'LEAF', 'BRANCH_LT', 'LEAF', 'BRANCH_LT', 'LEAF', 'BRANCH_LT', 'LEAF', 'BRANCH_LT', 'LEAF', 'LEAF', 'BRANCH_LT', 'BRANCH_LT', 'BRANCH_LT', 'LEAF', 'LEAF', 'BRANCH_LT', 'LEAF', 'BRANCH_LT', 'LEAF', 'LEAF', 'BRANCH_LT', 'BRANCH_LT', 'LEAF', 'LEAF', 'BRANCH_LT', 'BRANCH_LT', 'BRANCH_LT', 'BRANCH_LT', 'LEAF', 'LEAF', 'BRANCH_LT', 'LEAF', 'LEAF', 'BRANCH_LT', 'LEAF', 'LEAF', 'BRANCH_LT', 'LEAF', 'LEAF', 'BRANCH_LT', 'BRANCH_LT', 'BRANCH_LT', 'LEAF', 'BRANCH_LT', 'LEAF', 'LEAF', 'BRANCH_LT', 'BRANCH_LT', 'LEAF', 'LEAF', 'LEAF', 'BRANCH_LT', 'BRANCH_LT', 'BRANCH_LT', 'BRANCH_LT', 'BRANCH_LT', 'LEAF', 'LEAF', 'BRANCH_LT', 'LEAF', 'LEAF', 'LEAF', 'LEAF', 'LEAF', 'BRANCH_LT', 'BRANCH_LT', 'BRANCH_LT', 'BRANCH_LT', 'LEAF', 'BRANCH_LT', 'BRANCH_LT', 'LEAF', 'LEAF', 'LEAF', 'BRANCH_LT', 'LEAF', 'BRANCH_LT', 'LEAF', 'LEAF', 'BRANCH_LT', 'BRANCH_LT', 'LEAF', 'BRANCH_LT', 'BRANCH_LT', 'LEAF', 'LEAF', 'LEAF', 'LEAF', 'BRANCH_LT', 'BRANCH_LT', 'BRANCH_LT', 'LEAF', 'LEAF', 'BRANCH_LT', 'BRANCH_LT', 'BRANCH_LT', 'LEAF', 'LEAF', 'LEAF', 'LEAF', 'BRANCH_LT', 'BRANCH_LT', 'LEAF', 'LEAF', 'BRANCH_LT', 'LEAF', 'LEAF', 'BRANCH_LT', 'BRANCH_LT', 'BRANCH_LT', 'BRANCH_LT', 'LEAF', 'BRANCH_LT', 'LEAF', 'LEAF', 'BRANCH_LT', 'LEAF', 'LEAF', 'BRANCH_LT', 'BRANCH_LT', 'BRANCH_LT', 'BRANCH_LT', 'LEAF', 'LEAF', 'BRANCH_LT', 'LEAF', 'LEAF', 'BRANCH_LT', 'LEAF', 'BRANCH_LT', 'LEAF', 'LEAF', 'BRANCH_LT', 'BRANCH_LT', 'BRANCH_LT', 'LEAF', 'LEAF', 'BRANCH_LT', 'LEAF', 'LEAF', 'BRANCH_LT', 'BRANCH_LT', 'LEAF', 'LEAF', 'LEAF', 'LEAF', 'BRANCH_LT', 'BRANCH_LT', 'BRANCH_LT', 'BRANCH_LT', 'BRANCH_LT', 'LEAF', 'LEAF', 'LEAF', 'BRANCH_LT', 'LEAF', 'LEAF', 'BRANCH_LT', 'BRANCH_LT', 'LEAF', 'LEAF', 'BRANCH_LT', 'BRANCH_LT', 'LEAF', 'LEAF', 'BRANCH_LT', 'LEAF', 'BRANCH_LT', 'LEAF', 'LEAF', 'BRANCH_LT', 'LEAF', 'BRANCH_LT', 'LEAF', 'BRANCH_LT', 'LEAF', 'LEAF', 'BRANCH_LT', 'BRANCH_LT', 'LEAF', 'BRANCH_LT', 'BRANCH_LT', 'LEAF', 'LEAF', 'LEAF', 'BRANCH_LT', 'BRANCH_LT', 'LEAF', 'BRANCH_LT', 'LEAF', 'LEAF', 'BRANCH_LT', 'BRANCH_LT', 'BRANCH_LT', 'BRANCH_LT', 'LEAF', 'LEAF', 'LEAF', 'LEAF', 'BRANCH_LT', 'LEAF', 'LEAF', 'BRANCH_LT', 'BRANCH_LT', 'BRANCH_LT', 'LEAF', 'BRANCH_LT', 'LEAF', 'LEAF', 'BRANCH_LT', 'BRANCH_LT', 'LEAF', 'BRANCH_LT', 'BRANCH_LT', 'LEAF', 'LEAF', 'LEAF', 'LEAF', 'BRANCH_LT', 'LEAF', 'BRANCH_LT', 'LEAF', 'LEAF', 'BRANCH_LT', 'BRANCH_LT', 'BRANCH_LT', 'BRANCH_LT', 'BRANCH_LT', 'LEAF', 'BRANCH_LT', 'LEAF', 'LEAF', 'BRANCH_LT', 'BRANCH_LT', 'LEAF', 'LEAF', 'LEAF', 'BRANCH_LT', 'BRANCH_LT', 'LEAF', 'LEAF', 'LEAF', 'BRANCH_LT', 'BRANCH_LT', 'BRANCH_LT', 'LEAF', 'LEAF', 'LEAF', 'BRANCH_LT', 'LEAF', 'LEAF', 'BRANCH_LT', 'BRANCH_LT', 'LEAF', 'BRANCH_LT', 'BRANCH_LT', 'BRANCH_LT', 'LEAF', 'LEAF', 'BRANCH_LT', 'LEAF', 'LEAF', 'LEAF', 'BRANCH_LT', 'BRANCH_LT', 'LEAF', 'BRANCH_LT', 'LEAF', 'LEAF', 'LEAF', 'BRANCH_LT', 'BRANCH_LT', 'BRANCH_LT', 'BRANCH_LT', 'BRANCH_LT', 'LEAF', 'LEAF', 'BRANCH_LT', 'LEAF', 'LEAF', 'BRANCH_LT', 'BRANCH_LT', 'BRANCH_LT', 'LEAF', 'LEAF', 'BRANCH_LT', 'LEAF', 'LEAF', 'BRANCH_LT', 'BRANCH_LT', 'LEAF', 'LEAF', 'BRANCH_LT', 'LEAF', 'LEAF', 'BRANCH_LT', 'BRANCH_LT', 'BRANCH_LT', 'LEAF', 'LEAF', 'LEAF', 'LEAF', 'LEAF', 'BRANCH_LT', 'BRANCH_LT', 'BRANCH_LT', 'BRANCH_LT', 'LEAF', 'LEAF', 'BRANCH_LT', 'LEAF', 'LEAF', 'BRANCH_LT', 'BRANCH_LT', 'BRANCH_LT', 'BRANCH_LT', 'LEAF', 'LEAF', 'BRANCH_LT', 'LEAF', 'LEAF', 'BRANCH_LT', 'LEAF', 'LEAF', 'BRANCH_LT', 'LEAF', 'BRANCH_LT', 'LEAF', 'BRANCH_LT', 'LEAF', 'LEAF', 'BRANCH_LT', 'LEAF', 'BRANCH_LT', 'BRANCH_LT', 'LEAF', 'LEAF', 'LEAF', 'BRANCH_LT', 'BRANCH_LT', 'BRANCH_LT', 'LEAF', 'BRANCH_LT', 'BRANCH_LT', 'LEAF', 'LEAF', 'BRANCH_LT', 'LEAF', 'BRANCH_LT', 'LEAF', 'LEAF', 'BRANCH_LT', 'BRANCH_LT', 'LEAF', 'BRANCH_LT', 'LEAF', 'LEAF', 'LEAF', 'BRANCH_LT', 'BRANCH_LT', 'LEAF', 'LEAF', 'BRANCH_LT', 'BRANCH_LT', 'BRANCH_LT', 'LEAF', 'LEAF', 'BRANCH_LT', 'BRANCH_LT', 'LEAF', 'LEAF', 'LEAF', 'BRANCH_LT', 'BRANCH_LT', 'LEAF', 'LEAF', 'LEAF', 'BRANCH_LT', 'BRANCH_LT', 'BRANCH_LT', 'LEAF', 'LEAF', 'BRANCH_LT', 'LEAF', 'BRANCH_LT', 'LEAF', 'LEAF', 'BRANCH_LT', 'BRANCH_LT', 'BRANCH_LT', 'BRANCH_LT', 'BRANCH_LT', 'LEAF', 'LEAF', 'LEAF', 'LEAF', 'LEAF', 'LEAF'],
    "nodes_nodeids": [0, 1, 2, 3, 4, 5, 6, 7, 8, 9, 10, 11, 12, 13, 14, 15, 16, 17, 18, 19, 20, 21, 22, 23, 24, 25, 26, 27, 28, 29, 30, 31, 32, 33, 34, 35, 36, 37, 38, 39, 40, 0, 1, 2, 3, 4, 5, 6, 7, 8, 9, 10, 11, 12, 13, 14, 15, 16, 17, 18, 19, 20, 21, 22, 23, 24, 25, 26, 27, 28, 29, 30, 31, 32, 33, 34, 35, 36, 37, 38, 0, 1, 2, 3, 4, 5, 6, 7, 8, 9, 10, 11, 12, 13, 14, 15, 16, 17, 18, 19, 20, 21, 22, 23, 24, 25, 26, 27, 28, 29, 30, 0, 1, 2, 3, 4, 5, 6, 7, 8, 9, 10, 11, 12, 13, 14, 15, 16, 17, 18, 19, 20, 21, 22, 23, 24, 25, 26, 27, 28, 29, 30, 31, 32, 0, 1, 2, 3, 4, 5, 6, 7, 8, 9, 10, 11, 12, 13, 14, 15, 16, 17, 18, 19, 20, 0, 1, 2, 3, 4, 5, 6, 7, 8, 9, 10, 11, 12, 13, 14, 15, 16, 17, 18, 19, 20, 21, 22, 23, 24, 25, 26, 27, 28, 29, 30, 0, 1, 2, 3, 4, 5, 6, 7, 8, 9, 10, 11, 12, 13, 14, 15, 16, 17, 18, 19, 20, 21, 22, 23, 24, 25, 26, 27, 28, 29, 30, 31, 32, 33, 34, 35, 36, 0, 1, 2, 3, 4, 5, 6, 7, 8, 9, 10, 11, 12, 13, 14, 15, 16, 17, 18, 19, 20, 21, 22, 23, 24, 25, 26, 27, 28, 29, 30, 31, 32, 0, 1, 2, 3, 4, 5, 6, 7, 8, 9, 10, 11, 12, 13, 14, 15, 16, 17, 18, 19, 20, 21, 22, 23, 24, 25, 26, 27, 28, 29, 30, 31, 32, 33, 34, 35, 36, 0, 1, 2, 3, 4, 5, 6, 7, 8, 9, 10, 11, 12, 13, 14, 15, 16, 17, 18, 19, 20, 21, 22, 23, 24, 0, 1, 2, 3, 4, 5, 6, 7, 8, 9, 10, 11, 12, 13, 14, 15, 16, 17, 18, 19, 20, 21, 22, 23, 24, 25, 26, 27, 28, 29, 30, 31, 32, 33, 34, 35, 36, 0, 1, 2, 3, 4, 5, 6, 7, 8, 9, 10, 11, 12, 13, 14, 15, 16, 17, 18, 19, 20, 21, 22, 23, 24, 25, 26, 27, 28, 29, 30, 31, 32, 33, 34, 35, 36, 0, 1, 2, 3, 4, 5, 6, 7, 8, 9, 10, 11, 12, 13, 14, 15, 16, 17, 18, 19, 20, 21, 22, 23, 24, 25, 26, 27, 28, 29, 30, 31, 32, 0, 1, 2, 3, 4, 5, 6, 7, 8, 9, 10, 11, 12, 13, 14, 15, 16, 17, 18, 19, 20, 21, 22, 23, 24, 25, 26, 27, 28, 29, 30, 31, 32, 33, 34, 35, 36, 37, 38, 0, 1, 2, 3, 4, 5, 6, 7, 8, 9, 10, 11, 12, 13, 14, 15, 16, 17, 18, 19, 20, 21, 22, 23, 24, 0, 1, 2, 3, 4, 5, 6, 7, 8, 9, 10, 11, 12, 13, 14, 15, 16, 17, 18, 19, 20, 21, 22, 23, 24, 25, 26, 27, 28, 29, 30, 31, 32, 33, 34, 35, 36, 37, 38, 39, 40, 0, 1, 2, 3, 4, 5, 6, 7, 8, 9, 10, 11, 12, 13, 14, 15, 16, 17, 18, 19, 20, 21, 22, 23, 24, 25, 26, 27, 28, 29, 30, 31, 32, 33, 34, 35, 36, 0, 1, 2, 3, 4, 5, 6, 7, 8, 9, 10, 11, 12, 13, 14, 15, 16, 17, 18, 19, 20, 21, 22, 23, 24, 25, 26, 27, 28, 29, 30, 31, 32, 33, 34, 0, 1, 2, 3, 4, 5, 6, 7, 8, 9, 10, 11, 12, 13, 14, 15, 16, 17, 18, 19, 20, 21, 22, 23, 24, 25, 26, 27, 28, 29, 30, 31, 32, 33, 34, 35, 36, 37, 38, 0, 1, 2, 3, 4, 5, 6, 7, 8, 9, 10, 11, 12, 13, 14, 15, 16, 17, 18, 19, 20, 21, 22, 23, 24, 0, 1, 2, 3, 4, 5, 6, 7, 8, 9, 10, 11, 12, 13, 14, 15, 16, 17, 18, 19, 20, 21, 22, 23, 24, 25, 26, 27, 28, 29, 30, 31, 32, 33, 34, 35, 36, 37, 38, 39, 40, 41, 42, 0, 1, 2, 3, 4, 5, 6, 7, 8, 9, 10, 11, 12, 13, 14, 15, 16, 17, 18, 19, 20, 21, 22, 23, 24, 0, 1, 2, 3, 4, 5, 6, 7, 8, 9, 10, 11, 12, 13, 14, 15, 16, 17, 18, 19, 20, 21, 22, 23, 24, 25, 26, 27, 28, 29, 30, 0, 1, 2, 3, 4, 5, 6, 7, 8, 9, 10, 11, 12, 13, 14, 15, 16, 17, 18, 19, 20, 21, 22, 23, 24, 25, 26, 27, 28, 29, 30, 31, 32, 33, 34, 0, 1, 2, 3, 4, 5, 6, 7, 8, 9, 10, 11, 12, 13, 14, 15, 16, 17, 18, 19, 20, 21, 22, 23, 24, 0, 1, 2, 3, 4, 5, 6, 7, 8, 9, 10, 11, 12, 13, 14, 15, 16, 17, 18, 19, 20, 21, 22, 23, 24, 25, 26, 27, 28, 29, 30, 31, 32, 33, 34, 35, 36, 37, 38, 39, 40, 41, 42, 43, 44, 45, 46, 47, 48, 49, 50, 0, 1, 2, 3, 4, 5, 6, 7, 8, 9, 10, 11, 12, 13, 14, 15, 16, 17, 18, 19, 20, 21, 22, 23, 24, 0, 1, 2, 3, 4, 5, 6, 7, 8, 9, 10, 11, 12, 13, 14, 15, 16, 17, 18, 19, 20, 21, 22, 23, 24, 25, 26, 27, 28, 29, 30, 31, 32, 33, 34, 35, 36, 0, 1, 2, 3, 4, 5, 6, 7, 8, 9, 10, 11, 12, 13, 14, 15, 16, 17, 18, 19, 20, 21, 22, 23, 24, 25, 26, 27, 28, 29, 30, 31, 32, 33, 34, 35, 36, 0, 1, 2, 3, 4, 5, 6, 7, 8, 9, 10, 11, 12, 13, 14, 15, 16, 17, 18, 19, 20, 21, 22, 23, 24, 0, 1, 2, 3, 4, 5, 6, 7, 8, 9, 10, 11, 12, 13, 14, 15, 16, 17, 18, 19, 20, 21, 22, 23, 24, 25, 26, 27, 28, 29, 30, 31, 32, 33, 34, 35, 36, 37, 38, 39, 40, 41, 42, 43, 44, 45, 46, 0, 1, 2, 3, 4, 5, 6, 7, 8, 9, 10, 11, 12, 13, 14, 15, 16, 17, 18, 19, 20, 21, 22, 23, 24, 25, 26, 27, 28, 29, 30, 31, 32, 33, 34, 35, 36, 37, 38, 39, 40, 41, 42, 0, 1, 2, 3, 4, 5, 6, 7, 8, 9, 10, 11, 12, 13, 14, 15, 16, 17, 18, 19, 20, 21, 22, 23, 24, 25, 26, 27, 28, 29, 30, 31, 32, 33, 34, 0, 1, 2, 3, 4, 5, 6, 7, 8, 9, 10, 11, 12, 13, 14, 15, 16, 17, 18, 19, 20, 21, 22, 23, 24, 25, 26, 27, 28, 29, 30, 31, 32, 33, 34, 0, 1, 2, 3, 4, 5, 6, 7, 8, 9, 10, 11, 12, 13, 14, 15, 16, 17, 18, 19, 20, 21, 22, 23, 24, 0, 1, 2, 3, 4, 5, 6, 7, 8, 9, 10, 11, 12, 13, 14, 15, 16, 17, 18, 19, 20, 21, 22, 23, 24, 25, 26, 27, 28, 29, 30, 31, 32, 33, 34, 35, 36, 37, 38, 39, 40, 41, 42, 43, 44, 45, 46, 0, 1, 2, 3, 4, 5, 6, 7, 8, 9, 10, 11, 12, 13, 14, 15, 16, 17, 18, 19, 20, 0, 1, 2, 3, 4, 5, 6, 7, 8, 9, 10, 11, 12, 13, 14, 15, 16, 17, 18, 19, 20, 21, 22, 23, 24, 25, 26, 0, 1, 2, 3, 4, 5, 6, 7, 8, 9, 10, 11, 12, 13, 14, 15, 16, 17, 18, 19, 20, 21, 22, 23, 24, 25, 26, 27, 28, 0, 1, 2, 3, 4, 5, 6, 7, 8, 9, 10, 11, 12, 13, 14, 15, 16, 17, 18, 19, 20, 21, 22, 23, 24, 0, 1, 2, 3, 4, 5, 6, 7, 8, 9, 10, 11, 12, 13, 14, 15, 16, 17, 18, 19, 20, 21, 22, 23, 24, 25, 26, 27, 28, 29, 30, 31, 32, 33, 34, 35, 36, 37, 38, 39, 40, 41, 42, 0, 1, 2, 3, 4, 5, 6, 7, 8, 9, 10, 11, 12, 13, 14, 15, 16, 17, 18, 19, 20, 21, 22, 23, 24, 25, 26, 27, 28, 29, 30, 31, 32, 33, 34, 35, 36, 37, 38, 0, 1, 2, 3, 4, 5, 6, 7, 8, 9, 10, 11, 12, 13, 14, 15, 16, 17, 18, 19, 20, 21, 22, 23, 24, 25, 26, 27, 28, 29, 30, 0, 1, 2, 3, 4, 5, 6, 7, 8, 9, 10, 11, 12, 13, 14, 15, 16, 17, 18, 19, 20, 21, 22, 23, 24, 0, 1, 2, 3, 4, 5, 6, 7, 8, 9, 10, 11, 12, 13, 14, 15, 16, 17, 18, 19, 20, 0, 1, 2, 3, 4, 5, 6, 7, 8, 9, 10, 11, 12, 13, 14, 15, 16, 17, 18, 19, 20, 21, 22, 23, 24, 25, 26, 27, 28, 29, 30, 31, 32, 33, 34, 35, 36, 37, 38, 39, 40, 41, 42, 43, 44, 45, 46, 0, 1, 2, 3, 4, 5, 6, 7, 8, 9, 10, 11, 12, 13, 14, 15, 16, 17, 18, 19, 20, 21, 22, 23, 24, 25, 26, 27, 28, 29, 30, 31, 32, 0, 1, 2, 3, 4, 5, 6, 7, 8, 9, 10, 11, 12, 13, 14, 15, 16, 17, 18, 19, 20, 21, 22, 23, 24, 25, 26, 27, 28, 29, 30, 31, 32, 33, 34, 0, 1, 2, 3, 4, 5, 6, 7, 8, 9, 10, 11, 12, 13, 14, 15, 16, 17, 18, 19, 20, 21, 22, 23, 24, 25, 26, 27, 28, 29, 30, 31, 32, 33, 34, 35, 36, 37, 38, 0, 1, 2, 3, 4, 5, 6, 7, 8, 9, 10, 11, 12, 13, 14, 15, 16, 17, 18, 19, 20],
    "nodes_treeids": [0, 0, 0, 0, 0, 0, 0, 0, 0, 0, 0, 0, 0, 0, 0, 0, 0, 0, 0, 0, 0, 0, 0, 0, 0, 0, 0, 0, 0, 0, 0, 0, 0, 0, 0, 0, 0, 0, 0, 0, 0, 1, 1, 1, 1, 1, 1, 1, 1, 1, 1, 1, 1, 1, 1, 1, 1, 1, 1, 1, 1, 1, 1, 1, 1, 1, 1, 1, 1, 1, 1, 1, 1, 1, 1, 1, 1, 1, 1, 1, 2, 2, 2, 2, 2, 2, 2, 2, 2, 2, 2, 2, 2, 2, 2, 2, 2, 2, 2, 2, 2, 2, 2, 2, 2, 2, 2, 2, 2, 2, 2, 3, 3, 3, 3, 3, 3, 3, 3, 3, 3, 3, 3, 3, 3, 3, 3, 3, 3, 3, 3, 3, 3, 3, 3, 3, 3, 3, 3, 3, 3, 3, 3, 3, 4, 4, 4, 4, 4, 4, 4, 4, 4, 4, 4, 4, 4, 4, 4, 4, 4, 4, 4, 4, 4, 5, 5, 5, 5, 5, 5, 5, 5, 5, 5, 5, 5, 5, 5, 5, 5, 5, 5, 5, 5, 5, 5, 5, 5, 5, 5, 5, 5, 5, 5, 5, 6, 6, 6, 6, 6, 6, 6, 6, 6, 6, 6, 6, 6, 6, 6, 6, 6, 6, 6, 6, 6, 6, 6, 6, 6, 6, 6, 6, 6, 6, 6, 6, 6, 6, 6, 6, 6, 7, 7, 7, 7, 7, 7, 7, 7, 7, 7, 7, 7, 7, 7, 7, 7, 7, 7, 7, 7, 7, 7, 7, 7, 7, 7, 7, 7, 7, 7, 7, 7, 7, 8, 8, 8, 8, 8, 8, 8, 8, 8, 8, 8, 8, 8, 8, 8, 8, 8, 8, 8, 8, 8, 8, 8, 8, 8, 8, 8, 8, 8, 8, 8, 8, 8, 8, 8, 8, 8, 9, 9, 9, 9, 9, 9, 9, 9, 9, 9, 9, 9, 9, 9, 9, 9, 9, 9, 9, 9, 9, 9, 9, 9, 9, 10, 10, 10, 10, 10, 10, 10, 10, 10, 10, 10, 10, 10, 10, 10, 10, 10, 10, 10, 10, 10, 10, 10, 10, 10, 10, 10, 10, 10, 10, 10, 10, 10, 10, 10, 10, 10, 11, 11, 11, 11, 11, 11, 11, 11, 11, 11, 11, 11, 11, 11, 11, 11, 11, 11, 11, 11, 11, 11, 11, 11, 11, 11, 11, 11, 11, 11, 11, 11, 11, 11, 11, 11, 11, 12, 12, 12, 12, 12, 12, 12, 12, 12, 12, 12, 12, 12, 12, 12, 12, 12, 12, 12, 12, 12, 12, 12, 12, 12, 12, 12, 12, 12, 12, 12, 12, 12, 13, 13, 13, 13, 13, 13, 13, 13, 13, 13, 13, 13, 13, 13, 13, 13, 13, 13, 13, 13, 13, 13, 13, 13, 13, 13, 13, 13, 13, 13, 13, 13, 13, 13, 13, 13, 13, 13, 13, 14, 14, 14, 14, 14, 14, 14, 14, 14, 14, 14, 14, 14, 14, 14, 14, 14, 14, 14, 14, 14, 14, 14, 14, 14, 15, 15, 15, 15, 15, 15, 15, 15, 15, 15, 15, 15, 15, 15, 15, 15, 15, 15, 15, 15, 15, 15, 15, 15, 15, 15, 15, 15, 15, 15, 15, 15, 15, 15, 15, 15, 15, 15, 15, 15, 15, 16, 16, 16, 16, 16, 16, 16, 16, 16, 16, 16, 16, 16, 16, 16, 16, 16, 16, 16, 16, 16, 16, 16, 16, 16, 16, 16, 16, 16, 16, 16, 16, 16, 16, 16, 16, 16, 17, 17, 17, 17, 17, 17, 17, 17, 17, 17, 17, 17, 17, 17, 17, 17, 17, 17, 17, 17, 17, 17, 17, 17, 17, 17, 17, 17, 17, 17, 17, 17, 17, 17, 17, 18, 18, 18, 18, 18, 18, 18, 18, 18, 18, 18, 18, 18, 18, 18, 18, 18, 18, 18, 18, 18, 18, 18, 18, 18, 18, 18, 18, 18, 18, 18, 18, 18, 18, 18, 18, 18, 18, 18, 19, 19, 19, 19, 19, 19, 19, 19, 19, 19, 19, 19, 19, 19, 19, 19, 19, 19, 19, 19, 19, 19, 19, 19, 19, 20, 20, 20, 20, 20, 20, 20, 20, 20, 20, 20, 20, 20, 20, 20, 20, 20, 20, 20, 20, 20, 20, 20, 20, 20, 20, 20, 20, 20, 20, 20, 20, 20, 20, 20, 20, 20, 20, 20, 20, 20, 20, 20, 21, 21, 21, 21, 21, 21, 21, 21, 21, 21, 21, 21, 21, 21, 21, 21, 21, 21, 21, 21, 21, 21, 21, 21, 21, 22, 22, 22, 22, 22, 22, 22, 22, 22, 22, 22, 22, 22, 22, 22, 22, 22, 22, 22, 22, 22, 22, 22, 22, 22, 22, 22, 22, 22, 22, 22, 23, 23, 23, 23, 23, 23, 23, 23, 23, 23, 23, 23, 23, 23, 23, 23, 23, 23, 23, 23, 23, 23, 23, 23, 23, 23, 23, 23, 23, 23, 23, 23, 23, 23, 23, 24, 24, 24, 24, 24, 24, 24, 24, 24, 24, 24, 24, 24, 24, 24, 24, 24, 24, 24, 24, 24, 24, 24, 24, 24, 25, 25, 25, 25, 25, 25, 25, 25, 25, 25, 25, 25, 25, 25, 25, 25, 25, 25, 25, 25, 25, 25, 25, 25, 25, 25, 25, 25, 25, 25, 25, 25, 25, 25, 25, 25, 25, 25, 25, 25, 25, 25, 25, 25, 25, 25, 25, 25, 25, 25, 25, 26, 26, 26, 26, 26, 26, 26, 26, 26, 26, 26, 26, 26, 26, 26, 26, 26, 26, 26, 26, 26, 26, 26, 26, 26, 27, 27, 27, 27, 27, 27, 27, 27, 27, 27, 27, 27, 27, 27, 27, 27, 27, 27, 27, 27, 27, 27, 27, 27, 27, 27, 27, 27, 27, 27, 27, 27, 27, 27, 27, 27, 27, 28, 28, 28, 28, 28, 28, 28, 28, 28, 28, 28, 28, 28, 28, 28, 28, 28, 28, 28, 28, 28, 28, 28, 28, 28, 28, 28, 28, 28, 28, 28, 28, 28, 28, 28, 28, 28, 29, 29, 29, 29, 29, 29, 29, 29, 29, 29, 29, 29, 29, 29, 29, 29, 29, 29, 29, 29, 29, 29, 29, 29, 29, 30, 30, 30, 30, 30, 30, 30, 30, 30, 30, 30, 30, 30, 30, 30, 30, 30, 30, 30, 30, 30, 30, 30, 30, 30, 30, 30, 30, 30, 30, 30, 30, 30, 30, 30, 30, 30, 30, 30, 30, 30, 30, 30, 30, 30, 30, 30, 31, 31, 31, 31, 31, 31, 31, 31, 31, 31, 31, 31, 31, 31, 31, 31, 31, 31, 31, 31, 31, 31, 31, 31, 31, 31, 31, 31, 31, 31, 31, 31, 31, 31, 31, 31, 31, 31, 31, 31, 31, 31, 31, 32, 32, 32, 32, 32, 32, 32, 32, 32, 32, 32, 32, 32, 32, 32, 32, 32, 32, 32, 32, 32, 32, 32, 32, 32, 32, 32, 32, 32, 32, 32, 32, 32, 32, 32, 33, 33, 33, 33, 33, 33, 33, 33, 33, 33, 33, 33, 33, 33, 33, 33, 33, 33, 33, 33, 33, 33, 33, 33, 33, 33, 33, 33, 33, 33, 33, 33, 33, 33, 33, 34, 34, 34, 34, 34, 34, 34, 34, 34, 34, 34, 34, 34, 34, 34, 34, 34, 34, 34, 34, 34, 34, 34, 34, 34, 35, 35, 35, 35, 35, 35, 35, 35, 35, 35, 35, 35, 35, 35, 35, 35, 35, 35, 35, 35, 35, 35, 35, 35, 35, 35, 35, 35, 35, 35, 35, 35, 35, 35, 35, 35, 35, 35, 35, 35, 35, 35, 35, 35, 35, 35, 35, 36, 36, 36, 36, 36, 36, 36, 36, 36, 36, 36, 36, 36, 36, 36, 36, 36, 36, 36, 36, 36, 37, 37, 37, 37, 37, 37, 37, 37, 37, 37, 37, 37, 37, 37, 37, 37, 37, 37, 37, 37, 37, 37, 37, 37, 37, 37, 37, 38, 38, 38, 38, 38, 38, 38, 38, 38, 38, 38, 38, 38, 38, 38, 38, 38, 38, 38, 38, 38, 38, 38, 38, 38, 38, 38, 38, 38, 39, 39, 39, 39, 39, 39, 39, 39, 39, 39, 39, 39, 39, 39, 39, 39, 39, 39, 39, 39, 39, 39, 39, 39, 39, 40, 40, 40, 40, 40, 40, 40, 40, 40, 40, 40, 40, 40, 40, 40, 40, 40, 40, 40, 40, 40, 40, 40, 40, 40, 40, 40, 40, 40, 40, 40, 40, 40, 40, 40, 40, 40, 40, 40, 40, 40, 40, 40, 41, 41, 41, 41, 41, 41, 41, 41, 41, 41, 41, 41, 41, 41, 41, 41, 41, 41, 41, 41, 41, 41, 41, 41, 41, 41, 41, 41, 41, 41, 41, 41, 41, 41, 41, 41, 41, 41, 41, 42, 42, 42, 42, 42, 42, 42, 42, 42, 42, 42, 42, 42, 42, 42, 42, 42, 42, 42, 42, 42, 42, 42, 42, 42, 42, 42, 42, 42, 42, 42, 43, 43, 43, 43, 43, 43, 43, 43, 43, 43, 43, 43, 43, 43, 43, 43, 43, 43, 43, 43, 43, 43, 43, 43, 43, 44, 44, 44, 44, 44, 44, 44, 44, 44, 44, 44, 44, 44, 44, 44, 44, 44, 44, 44, 44, 44, 45, 45, 45, 45, 45, 45, 45, 45, 45, 45, 45, 45, 45, 45, 45, 45, 45, 45, 45, 45, 45, 45, 45, 45, 45, 45, 45, 45, 45, 45, 45, 45, 45, 45, 45, 45, 45, 45, 45, 45, 45, 45, 45, 45, 45, 45, 45, 46, 46, 46, 46, 46, 46, 46, 46, 46, 46, 46, 46, 46, 46, 46, 46, 46, 46, 46, 46, 46, 46, 46, 46, 46, 46, 46, 46, 46, 46, 46, 46, 46, 47, 47, 47, 47, 47, 47, 47, 47, 47, 47, 47, 47, 47, 47, 47, 47, 47, 47, 47, 47, 47, 47, 47, 47, 47, 47, 47, 47, 47, 47, 47, 47, 47, 47, 47, 48, 48, 48, 48, 48, 48, 48, 48, 48, 48, 48, 48, 48, 48, 48, 48, 48, 48, 48, 48, 48, 48, 48, 48, 48, 48, 48, 48, 48, 48, 48, 48, 48, 48, 48, 48, 48, 48, 48, 49, 49, 49, 49, 49, 49, 49, 49, 49, 49, 49, 49, 49, 49, 49, 49, 49, 49, 49, 49, 49],
    "nodes_truenodeids": [1, 2, 3, 4, 0, 6, 7, 0, 0, 0, 0, 12, 13, 14, 0, 0, 0, 18, 0, 0, 21, 22, 23, 24, 0, 0, 0, 28, 29, 0, 0, 0, 33, 34, 0, 0, 37, 38, 0, 0, 0, 1, 2, 3, 4, 5, 0, 0, 0, 0, 10, 11, 12, 13, 0, 0, 0, 0, 0, 19, 20, 21, 22, 0, 24, 0, 0, 27, 28, 0, 0, 31, 0, 0, 0, 35, 36, 0, 0, 0, 1, 2, 3, 4, 0, 6, 0, 0, 9, 10, 0, 0, 13, 0, 15, 0, 0, 18, 19, 0, 0, 0, 23, 0, 25, 0, 27, 28, 0, 0, 0, 1, 2, 3, 4, 0, 0, 7, 0, 9, 0, 0, 12, 13, 14, 0, 0, 0, 0, 19, 20, 21, 22, 0, 24, 0, 0, 27, 0, 0, 0, 31, 0, 0, 1, 2, 3, 0, 5, 0, 0, 8, 0, 0, 11, 12, 0, 0, 15, 0, 17, 0, 19, 0, 0, 1, 2, 3, 4, 0, 0, 7, 0, 0, 10, 0, 0, 13, 14, 15, 0, 17, 0, 0, 20, 21, 0, 0, 0, 25, 26, 0, 0, 29, 0, 0, 1, 2, 3, 4, 5, 6, 0, 0, 0, 10, 11, 0, 0, 0, 15, 16, 17, 0, 0, 0, 21, 22, 0, 0, 25, 0, 0, 28, 29, 0, 31, 0, 0, 0, 35, 0, 0, 1, 2, 3, 0, 5, 0, 0, 8, 9, 10, 0, 0, 13, 0, 15, 0, 0, 18, 19, 0, 0, 22, 0, 0, 25, 0, 27, 0, 29, 30, 0, 0, 0, 1, 2, 3, 4, 0, 0, 7, 0, 9, 10, 0, 0, 0, 14, 15, 16, 0, 0, 0, 0, 21, 22, 23, 0, 0, 26, 0, 0, 29, 0, 31, 32, 0, 34, 0, 0, 0, 1, 2, 3, 0, 5, 0, 0, 8, 9, 0, 0, 0, 13, 14, 0, 16, 0, 0, 19, 0, 21, 0, 23, 0, 0, 1, 2, 3, 4, 0, 6, 0, 0, 0, 10, 11, 0, 0, 0, 15, 16, 17, 0, 19, 0, 0, 22, 23, 0, 0, 26, 0, 0, 29, 30, 0, 0, 33, 0, 35, 0, 0, 1, 2, 3, 4, 5, 6, 0, 0, 0, 10, 11, 0, 0, 0, 15, 16, 17, 0, 0, 0, 21, 22, 0, 0, 25, 0, 0, 28, 29, 30, 0, 0, 0, 0, 35, 0, 0, 1, 2, 3, 0, 5, 0, 0, 8, 9, 10, 11, 0, 0, 0, 15, 0, 0, 18, 19, 0, 21, 0, 0, 0, 25, 0, 27, 0, 29, 30, 0, 0, 0, 1, 2, 3, 4, 0, 0, 7, 0, 9, 0, 0, 12, 13, 14, 15, 0, 0, 0, 0, 0, 21, 22, 0, 0, 25, 26, 0, 0, 29, 30, 31, 0, 0, 34, 0, 0, 37, 0, 0, 1, 2, 3, 0, 5, 0, 0, 8, 9, 0, 0, 0, 13, 0, 15, 16, 0, 0, 19, 20, 0, 0, 23, 0, 0, 1, 2, 3, 4, 5, 0, 7, 0, 0, 10, 0, 0, 13, 0, 15, 0, 0, 18, 0, 0, 21, 22, 23, 0, 25, 0, 0, 28, 29, 0, 0, 32, 0, 0, 35, 36, 0, 0, 39, 0, 0, 1, 2, 3, 4, 5, 6, 0, 0, 0, 10, 11, 0, 0, 0, 15, 16, 17, 0, 0, 20, 0, 0, 23, 24, 0, 0, 0, 28, 29, 0, 31, 0, 0, 0, 35, 0, 0, 1, 2, 3, 0, 5, 0, 0, 8, 9, 10, 11, 0, 0, 0, 15, 0, 0, 18, 19, 0, 0, 22, 0, 0, 25, 0, 27, 0, 29, 0, 31, 32, 0, 0, 0, 1, 2, 3, 4, 0, 0, 7, 8, 9, 0, 0, 0, 0, 14, 15, 16, 17, 0, 0, 0, 0, 0, 23, 24, 0, 0, 27, 28, 29, 0, 0, 32, 33, 0, 0, 0, 37, 0, 0, 1, 2, 3, 0, 5, 0, 0, 8, 0, 10, 0, 0, 13, 14, 0, 16, 0, 0, 19, 0, 21, 0, 23, 0, 0, 1, 2, 3, 4, 0, 6, 7, 0, 0, 10, 0, 0, 0, 14, 15, 0, 0, 0, 19, 20, 21, 0, 23, 0, 25, 0, 0, 28, 29, 0, 0, 32, 0, 0, 35, 36, 0, 0, 39, 0, 41, 0, 0, 1, 2, 3, 0, 5, 0, 0, 8, 0, 0, 11, 12, 13, 0, 15, 16, 0, 0, 19, 0, 0, 22, 0, 0, 0, 1, 2, 3, 0, 5, 0, 0, 8, 9, 10, 0, 0, 13, 0, 0, 16, 0, 18, 19, 0, 0, 0, 23, 0, 25, 0, 27, 28, 0, 0, 0, 1, 2, 3, 0, 0, 6, 0, 8, 9, 0, 0, 0, 13, 14, 0, 0, 17, 18, 19, 20, 0, 0, 23, 0, 0, 26, 0, 0, 29, 30, 0, 32, 0, 0, 0, 1, 2, 3, 0, 5, 0, 0, 8, 9, 0, 0, 0, 13, 0, 15, 16, 17, 0, 0, 20, 0, 22, 0, 0, 0, 1, 2, 3, 4, 0, 6, 0, 0, 9, 10, 11, 0, 0, 14, 0, 0, 17, 0, 0, 20, 21, 22, 0, 0, 25, 0, 0, 28, 0, 0, 31, 32, 33, 34, 35, 0, 0, 0, 39, 0, 0, 42, 0, 0, 45, 46, 0, 0, 49, 0, 0, 1, 2, 3, 4, 5, 6, 0, 0, 0, 0, 11, 12, 0, 0, 0, 16, 17, 0, 19, 0, 0, 0, 23, 0, 0, 1, 2, 3, 0, 5, 0, 0, 8, 9, 10, 11, 0, 0, 0, 15, 16, 0, 0, 0, 20, 21, 0, 0, 24, 0, 0, 27, 0, 29, 0, 31, 0, 33, 34, 0, 0, 0, 1, 2, 3, 0, 5, 0, 7, 8, 0, 0, 0, 12, 13, 14, 15, 0, 0, 0, 0, 0, 21, 22, 0, 0, 25, 26, 27, 0, 0, 30, 31, 0, 0, 0, 35, 0, 0, 1, 2, 3, 0, 5, 0, 0, 8, 0, 10, 0, 0, 13, 0, 15, 16, 17, 0, 0, 20, 0, 22, 0, 0, 0, 1, 2, 3, 4, 5, 0, 0, 8, 9, 0, 0, 12, 0, 0, 15, 0, 17, 0, 0, 20, 21, 0, 0, 0, 25, 26, 27, 28, 29, 0, 0, 0, 33, 0, 0, 36, 0, 38, 0, 0, 41, 42, 0, 0, 45, 0, 0, 1, 2, 3, 0, 5, 0, 7, 8, 0, 0, 11, 0, 0, 14, 15, 16, 17, 0, 0, 20, 0, 0, 0, 24, 25, 0, 0, 28, 29, 0, 0, 32, 0, 0, 35, 36, 0, 38, 0, 0, 41, 0, 0, 1, 2, 3, 0, 5, 0, 0, 8, 9, 10, 11, 0, 0, 0, 15, 16, 0, 0, 0, 20, 21, 0, 0, 24, 0, 0, 27, 0, 29, 0, 31, 32, 0, 0, 0, 1, 2, 3, 0, 5, 0, 7, 8, 0, 0, 0, 12, 13, 0, 15, 0, 0, 0, 19, 20, 21, 22, 0, 0, 25, 0, 0, 28, 29, 0, 0, 32, 0, 0, 0, 1, 2, 3, 0, 5, 0, 0, 8, 9, 0, 0, 0, 13, 0, 15, 16, 17, 0, 0, 20, 0, 22, 0, 0, 0, 1, 2, 3, 4, 0, 6, 0, 0, 9, 0, 0, 12, 13, 0, 0, 16, 17, 0, 19, 0, 0, 22, 0, 0, 25, 26, 27, 28, 0, 0, 31, 32, 0, 0, 0, 36, 0, 38, 0, 0, 41, 42, 0, 0, 45, 0, 0, 1, 2, 3, 0, 5, 6, 0, 8, 0, 0, 11, 12, 0, 0, 15, 0, 0, 18, 0, 0, 0, 1, 2, 3, 0, 0, 6, 0, 0, 9, 10, 11, 12, 0, 0, 15, 0, 0, 0, 19, 0, 21, 0, 23, 0, 25, 0, 0, 1, 2, 3, 0, 0, 6, 0, 8, 0, 0, 11, 12, 0, 0, 15, 16, 17, 18, 0, 0, 21, 0, 0, 24, 0, 0, 27, 0, 0, 1, 2, 3, 0, 5, 0, 0, 8, 9, 0, 0, 0, 13, 14, 15, 16, 17, 0, 0, 20, 0, 0, 0, 0, 0, 1, 2, 3, 4, 0, 6, 7, 0, 0, 0, 11, 0, 13, 0, 0, 16, 17, 0, 19, 20, 0, 0, 0, 0, 25, 26, 27, 0, 0, 30, 31, 32, 0, 0, 0, 0, 37, 38, 0, 0, 41, 0, 0, 1, 2, 3, 4, 0, 6, 0, 0, 9, 0, 0, 12, 13, 14, 15, 0, 0, 18, 0, 0, 21, 0, 23, 0, 0, 26, 27, 28, 0, 0, 31, 0, 0, 34, 35, 0, 0, 0, 0, 1, 2, 3, 4, 5, 0, 0, 0, 9, 0, 0, 12, 13, 0, 0, 16, 17, 0, 0, 20, 0, 22, 0, 0, 25, 0, 27, 0, 29, 0, 0, 1, 2, 0, 4, 5, 0, 0, 0, 9, 10, 0, 12, 0, 0, 15, 16, 17, 18, 0, 0, 0, 0, 23, 0, 0, 1, 2, 3, 0, 5, 0, 0, 8, 9, 0, 11, 12, 0, 0, 0, 0, 17, 0, 19, 0, 0, 1, 2, 3, 4, 5, 0, 7, 0, 0, 10, 11, 0, 0, 0, 15, 16, 0, 0, 0, 20, 21, 22, 0, 0, 0, 26, 0, 0, 29, 30, 0, 32, 33, 34, 0, 0, 37, 0, 0, 0, 41, 42, 0, 44, 0, 0, 0, 1, 2, 3, 4, 5, 0, 0, 8, 0, 0, 11, 12, 13, 0, 0, 16, 0, 0, 19, 20, 0, 0, 23, 0, 0, 26, 27, 28, 0, 0, 0, 0, 0, 1, 2, 3, 4, 0, 0, 7, 0, 0, 10, 11, 12, 13, 0, 0, 16, 0, 0, 19, 0, 0, 22, 0, 24, 0, 26, 0, 0, 29, 0, 31, 32, 0, 0, 0, 1, 2, 3, 0, 5, 6, 0, 0, 9, 0, 11, 0, 0, 14, 15, 0, 17, 0, 0, 0, 21, 22, 0, 0, 25, 26, 27, 0, 0, 30, 31, 0, 0, 0, 35, 36, 0, 0, 0, 1, 2, 3, 0, 0, 6, 0, 8, 0, 0, 11, 12, 13, 14, 15, 0, 0, 0, 0, 0, 0],
    "nodes_values": [0.375, 0.1666666716337204, 0.5801886916160583, 0.6354166269302368, 0.0, 0.6221374273300171, 0.8333333730697632, 0.0, 0.0, 0.0, 0.0, 0.8333333730697632, 0.2545661926269531, 0.22031962871551514, 0.0, 0.0, 0.0, 0.3892694115638733, 0.0, 0.0, 0.1666666716337204, 0.5, 0.4583333134651184, 0.8333333730697632, 0.0, 0.0, 0.0, 0.24193547666072845, 0.2614155411720276, 0.0, 0.0, 0.0, 0.04838709533214569, 0.5, 0.0, 0.0, 0.8333333730697632, 0.5, 0.0, 0.0, 0.0, 0.375, 0.5729166269302368, 0.2358490526676178, 0.1666666716337204, 0.3645833134651184, 0.0, 0.0, 0.0, 0.0, 0.7395833730697632, 0.5, 0.4811320900917053, 0.6030534505844116, 0.0, 0.0, 0.0, 0.0, 0.0, 0.3629032373428345, 0.5, 0.19063925743103027, 0.3333333134651184, 0.0, 0.13698630034923553, 0.0, 0.0, 0.6145833730697632, 0.40296804904937744, 0.0, 0.0, 0.3066037893295288, 0.0, 0.0, 0.0, 0.78125, 0.5, 0.0, 0.0, 0.0, 0.5839694738388062, 0.4354838728904724, 0.24315068125724792, 0.1666666716337204, 0.0, 0.26886793971061707, 0.0, 0.0, 0.17741934955120087, 0.75, 0.0, 0.0, 0.31603774428367615, 0.0, 0.38167938590049744, 0.0, 0.0, 0.6612902879714966, 0.48473283648490906, 0.0, 0.0, 0.0, 0.1666666716337204, 0.0, 0.8333333730697632, 0.0, 0.6770833730697632, 0.6145833730697632, 0.0, 0.0, 0.0, 0.5, 0.4541984796524048, 0.875, 0.53125, 0.0, 0.0, 0.5, 0.0, 0.13709676265716553, 0.0, 0.0, 0.7452830076217651, 0.21875, 0.1979166567325592, 0.0, 0.0, 0.0, 0.0, 0.4677419066429138, 0.7442747950553894, 0.5763359069824219, 0.2971698045730591, 0.0, 0.5, 0.0, 0.0, 0.875, 0.0, 0.0, 0.0, 0.6458333730697632, 0.0, 0.0, 0.3790322542190552, 0.8333333730697632, 0.6037735939025879, 0.0, 0.6415094137191772, 0.0, 0.0, 0.20161288976669312, 0.0, 0.0, 0.4354838728904724, 0.65625, 0.0, 0.0, 0.5645161271095276, 0.0, 0.4245283007621765, 0.0, 0.65625, 0.0, 0.0, 0.8333333730697632, 0.3145161271095276, 0.4351145029067993, 0.23630136251449585, 0.0, 0.0, 0.7264150977134705, 0.0, 0.0, 0.1666666716337204, 0.0, 0.0, 0.1666666716337204, 0.875, 0.5, 0.0, 0.572519063949585, 0.0, 0.0, 0.10483870655298233, 0.5416666269302368, 0.0, 0.0, 0.0, 0.4006849527359009, 0.2633587718009949, 0.0, 0.0, 0.5, 0.0, 0.0, 0.5, 0.3629032373428345, 0.375, 0.5729166269302368, 0.2358490526676178, 0.5, 0.0, 0.0, 0.0, 0.7395833730697632, 0.482876718044281, 0.0, 0.0, 0.0, 0.19063925743103027, 0.75, 0.3333333134651184, 0.0, 0.0, 0.0, 0.40296804904937744, 0.6145833730697632, 0.0, 0.0, 0.31603774428367615, 0.0, 0.0, 0.23630136251449585, 0.12557077407836914, 0.0, 0.6770833134651184, 0.0, 0.0, 0.0, 0.4677419066429138, 0.0, 0.0, 0.5839694738388062, 0.1854838728904724, 0.7604166269302368, 0.0, 0.8125, 0.0, 0.0, 0.5229007601737976, 0.27968037128448486, 0.25, 0.0, 0.0, 0.33018869161605835, 0.0, 0.38167938590049744, 0.0, 0.0, 0.8333333730697632, 0.30645161867141724, 0.0, 0.0, 0.6129032373428345, 0.0, 0.0, 0.1666666716337204, 0.0, 0.8333333730697632, 0.0, 0.6770833730697632, 0.6145833730697632, 0.0, 0.0, 0.0, 0.5, 0.4541984796524048, 0.875, 0.04838709533214569, 0.0, 0.0, 0.5, 0.0, 0.29032257199287415, 0.4433962106704712, 0.0, 0.0, 0.0, 0.7452830076217651, 0.21875, 0.7709923982620239, 0.0, 0.0, 0.0, 0.0, 0.6354166269302368, 0.14516128599643707, 0.6564885377883911, 0.0, 0.0, 0.371004581451416, 0.0, 0.0, 0.4007633626461029, 0.0, 0.5047169923782349, 0.28538811206817627, 0.0, 0.6870229244232178, 0.0, 0.0, 0.0, 0.3790322542190552, 0.8333333730697632, 0.6037735939025879, 0.0, 0.5, 0.0, 0.0, 0.20161288976669312, 0.8333333730697632, 0.0, 0.0, 0.0, 0.4354838728904724, 0.31603774428367615, 0.0, 0.23744291067123413, 0.0, 0.0, 0.5645161271095276, 0.0, 0.4245283007621765, 0.0, 0.3264840245246887, 0.0, 0.0, 0.375, 0.5, 0.4516128897666931, 0.30534350872039795, 0.0, 0.6037735939025879, 0.0, 0.0, 0.0, 0.7633587718009949, 0.71875, 0.0, 0.0, 0.0, 0.1666666716337204, 0.11290322244167328, 0.28125, 0.0, 0.5572519302368164, 0.0, 0.0, 0.6603053212165833, 0.5849056243896484, 0.0, 0.0, 0.4895833134651184, 0.0, 0.0, 0.04838709533214569, 0.016129031777381897, 0.0, 0.0, 0.8333333730697632, 0.0, 0.8333333730697632, 0.0, 0.0, 0.5, 0.3629032373428345, 0.375, 0.5729166269302368, 0.2358490526676178, 0.5, 0.0, 0.0, 0.0, 0.7395833730697632, 0.22945205867290497, 0.0, 0.0, 0.0, 0.19063925743103027, 0.75, 0.3333333134651184, 0.0, 0.0, 0.0, 0.38549619913101196, 0.25806450843811035, 0.0, 0.0, 0.4694656729698181, 0.0, 0.0, 0.23630136251449585, 0.5, 0.2924528419971466, 0.0, 0.0, 0.0, 0.0, 0.4677419066429138, 0.0, 0.0, 0.5839694738388062, 0.1854838728904724, 0.7604166269302368, 0.0, 0.8125, 0.0, 0.0, 0.48473283648490906, 0.38167938590049744, 0.35730594396591187, 0.2338709533214569, 0.0, 0.0, 0.0, 0.7395833730697632, 0.0, 0.0, 0.8333333730697632, 0.25, 0.0, 0.8333333730697632, 0.0, 0.0, 0.0, 0.1666666716337204, 0.0, 0.8333333730697632, 0.0, 0.6770833730697632, 0.6145833730697632, 0.0, 0.0, 0.0, 0.5, 0.4236641228199005, 0.875, 0.29770994186401367, 0.0, 0.0, 0.28244274854660034, 0.0, 0.13709676265716553, 0.0, 0.0, 0.8020833730697632, 0.5305343866348267, 0.5729166865348816, 0.19634702801704407, 0.0, 0.0, 0.0, 0.0, 0.0, 0.5729166269302368, 0.5, 0.0, 0.0, 0.75, 0.6984732747077942, 0.0, 0.0, 0.7291666269302368, 0.5, 0.34817349910736084, 0.0, 0.0, 0.26484018564224243, 0.0, 0.0, 0.15322580933570862, 0.0, 0.0, 0.3790322542190552, 0.8333333730697632, 0.6037735939025879, 0.0, 0.6415094137191772, 0.0, 0.0, 0.20161288976669312, 0.06451612710952759, 0.0, 0.0, 0.0, 0.4007633626461029, 0.0, 0.4694656729698181, 0.400943398475647, 0.0, 0.0, 0.5967742204666138, 0.6679389476776123, 0.0, 0.0, 0.3493150472640991, 0.0, 0.0, 0.8333333730697632, 0.3145161271095276, 0.5377358198165894, 0.6221374273300171, 0.26255708932876587, 0.0, 0.5, 0.0, 0.0, 0.71875, 0.0, 0.0, 0.5707547068595886, 0.0, 0.2728310525417328, 0.0, 0.0, 0.1666666716337204, 0.0, 0.0, 0.1666666716337204, 0.5, 0.875, 0.0, 0.3958333134651184, 0.0, 0.0, 0.11290322244167328, 0.25, 0.0, 0.0, 0.2924528419971466, 0.0, 0.0, 0.4006849527359009, 0.2633587718009949, 0.0, 0.0, 0.5, 0.0, 0.0, 0.5, 0.3629032373428345, 0.375, 0.5729166269302368, 0.2358490526676178, 0.6221374273300171, 0.0, 0.0, 0.0, 0.7395833730697632, 0.36986303329467773, 0.0, 0.0, 0.0, 0.33018869161605835, 0.2783018946647644, 0.40625, 0.0, 0.0, 0.22031962871551514, 0.0, 0.0, 0.5, 0.1666666716337204, 0.0, 0.0, 0.0, 0.23630136251449585, 0.42748093605041504, 0.0, 0.6666666269302368, 0.0, 0.0, 0.0, 0.75, 0.0, 0.0, 0.5839694738388062, 0.1854838728904724, 0.7604166269302368, 0.0, 0.8125, 0.0, 0.0, 0.48473283648490906, 0.38167938590049744, 0.35730594396591187, 0.2338709533214569, 0.0, 0.0, 0.0, 0.7395833730697632, 0.0, 0.0, 0.30645161867141724, 0.24885845184326172, 0.0, 0.0, 0.6129032373428345, 0.0, 0.0, 0.1666666716337204, 0.0, 0.8333333730697632, 0.0, 0.5, 0.0, 0.37735849618911743, 0.6832060813903809, 0.0, 0.0, 0.0, 0.5, 0.4236641228199005, 0.875, 0.2075471729040146, 0.0, 0.0, 0.5, 0.4354838728904724, 0.59375, 0.0, 0.0, 0.0, 0.0, 0.8020833730697632, 0.5305343866348267, 0.5729166865348816, 0.19634702801704407, 0.0, 0.0, 0.0, 0.0, 0.0, 0.5729166269302368, 0.8333333730697632, 0.0, 0.0, 0.5, 0.40322577953338623, 0.19811320304870605, 0.0, 0.0, 0.34018266201019287, 0.5610687136650085, 0.0, 0.0, 0.0, 0.19354838132858276, 0.0, 0.0, 0.3790322542190552, 0.8333333730697632, 0.6037735939025879, 0.0, 0.30821919441223145, 0.0, 0.0, 0.8333333730697632, 0.0, 0.7291666269302368, 0.0, 0.0, 0.4354838728904724, 0.2054794430732727, 0.0, 0.625, 0.0, 0.0, 0.5645161271095276, 0.0, 0.4245283007621765, 0.0, 0.3264840245246887, 0.0, 0.0, 0.375, 0.5, 0.4516128897666931, 0.30534350872039795, 0.0, 0.4600456655025482, 0.5, 0.0, 0.0, 0.49086758494377136, 0.0, 0.0, 0.0, 0.7633587718009949, 0.71875, 0.0, 0.0, 0.0, 0.1666666716337204, 0.11290322244167328, 0.28125, 0.0, 0.2614155411720276, 0.0, 0.5520833134651184, 0.0, 0.0, 0.6603053212165833, 0.5849056243896484, 0.0, 0.0, 0.4895833134651184, 0.0, 0.0, 0.04838709533214569, 0.016129031777381897, 0.0, 0.0, 0.8333333730697632, 0.0, 0.8333333730697632, 0.0, 0.0, 0.5, 0.5, 0.7442747950553894, 0.0, 0.5, 0.0, 0.0, 0.5729166269302368, 0.0, 0.0, 0.5080645084381104, 0.5, 0.1179245263338089, 0.0, 0.1603773534297943, 0.5, 0.0, 0.0, 0.5729166269302368, 0.0, 0.0, 0.75, 0.0, 0.0, 0.0, 0.5839694738388062, 0.15322580933570862, 0.7604166269302368, 0.0, 0.5, 0.0, 0.0, 0.24315068125724792, 0.4354838728904724, 0.3244274854660034, 0.0, 0.0, 0.5645161271095276, 0.0, 0.0, 0.25, 0.0, 0.6129032373428345, 0.33018869161605835, 0.0, 0.0, 0.0, 0.1666666716337204, 0.0, 0.8333333730697632, 0.0, 0.6770833730697632, 0.6145833730697632, 0.0, 0.0, 0.0, 0.875, 0.5, 0.29770994186401367, 0.0, 0.0, 0.75, 0.0, 0.8333333730697632, 0.301369845867157, 0.0, 0.0, 0.0, 0.11290322244167328, 0.5, 0.0, 0.0, 0.5305343866348267, 0.71875, 0.35730594396591187, 0.625, 0.0, 0.0, 0.5161290168762207, 0.0, 0.0, 0.26369863748550415, 0.0, 0.0, 0.5849056243896484, 0.6488549709320068, 0.0, 0.5, 0.0, 0.0, 0.0, 0.3790322542190552, 0.8333333730697632, 0.6037735939025879, 0.0, 0.6415094137191772, 0.0, 0.0, 0.20161288976669312, 0.3230593800544739, 0.0, 0.0, 0.0, 0.4007633626461029, 0.0, 0.5, 0.4354838728904724, 0.5, 0.0, 0.0, 0.5645161271095276, 0.0, 0.4245283007621765, 0.0, 0.0, 0.0, 0.1666666716337204, 0.5, 0.1603773534297943, 0.5, 0.0, 0.14150944352149963, 0.0, 0.0, 0.4600456655025482, 0.78125, 0.40322577953338623, 0.0, 0.0, 0.8333333730697632, 0.0, 0.0, 0.49086758494377136, 0.0, 0.0, 0.2682648301124573, 0.5, 0.5208333730697632, 0.0, 0.0, 0.3709677457809448, 0.0, 0.0, 0.6755725145339966, 0.0, 0.0, 0.8333333730697632, 0.375, 0.2545661926269531, 0.6458333730697632, 0.5208333134651184, 0.0, 0.0, 0.0, 0.43493151664733887, 0.0, 0.0, 0.24200913310050964, 0.0, 0.0, 0.4006849527359009, 0.2633587718009949, 0.0, 0.0, 0.8333333730697632, 0.0, 0.0, 0.5, 0.3629032373428345, 0.5377358198165894, 0.8129770755767822, 0.7604166269302368, 0.1666666716337204, 0.0, 0.0, 0.0, 0.0, 0.5, 0.6770833730697632, 0.0, 0.0, 0.0, 0.23630136251449585, 0.625, 0.0, 0.4541984796524048, 0.0, 0.0, 0.0, 0.4677419066429138, 0.0, 0.0, 0.5839694738388062, 0.15322580933570862, 0.7604166269302368, 0.0, 0.5, 0.0, 0.0, 0.5229007601737976, 0.3244274854660034, 0.3145161271095276, 0.5, 0.0, 0.0, 0.0, 0.42009133100509644, 0.4354838728904724, 0.0, 0.0, 0.0, 0.30645161867141724, 0.5, 0.0, 0.0, 0.75, 0.0, 0.0, 0.1666666716337204, 0.0, 0.8333333730697632, 0.0, 0.5, 0.0, 0.37735849618911743, 0.6832060813903809, 0.0, 0.0, 0.0, 0.5, 0.4236641228199005, 0.5, 0.0, 0.875, 0.0, 0.75, 0.31963470578193665, 0.0, 0.0, 0.0, 0.8020833730697632, 0.5305343866348267, 0.2226027399301529, 0.1780821979045868, 0.0, 0.0, 0.0, 0.0, 0.0, 0.5729166269302368, 0.5, 0.0, 0.0, 0.5, 0.40322577953338623, 0.388127863407135, 0.0, 0.0, 0.6450381278991699, 0.24086758494377136, 0.0, 0.0, 0.0, 0.19354838132858276, 0.0, 0.0, 0.3790322542190552, 0.8333333730697632, 0.6037735939025879, 0.0, 0.5, 0.0, 0.0, 0.8333333730697632, 0.0, 0.5, 0.0, 0.0, 0.4007633626461029, 0.0, 0.5, 0.4354838728904724, 0.5, 0.0, 0.0, 0.5645161271095276, 0.0, 0.5992366075515747, 0.0, 0.0, 0.0, 0.8333333730697632, 0.3145161271095276, 0.5377358198165894, 0.23173515498638153, 0.5, 0.0, 0.0, 0.6221374273300171, 0.33018869161605835, 0.0, 0.0, 0.2557077407836914, 0.0, 0.0, 0.5707547068595886, 0.0, 0.2728310525417328, 0.0, 0.0, 0.4811320900917053, 0.53125, 0.0, 0.0, 0.0, 0.1666666716337204, 0.875, 0.5, 0.40296804904937744, 0.4351145029067993, 0.0, 0.0, 0.0, 0.6041666269302368, 0.0, 0.0, 0.4791666865348816, 0.0, 0.25, 0.0, 0.0, 0.4006849527359009, 0.2633587718009949, 0.0, 0.0, 0.8333333730697632, 0.0, 0.0, 0.361872136592865, 0.2340182662010193, 0.27099236845970154, 0.0, 0.41603052616119385, 0.0, 0.46183204650878906, 0.1666666567325592, 0.0, 0.0, 0.5, 0.0, 0.0, 0.59375, 0.20967741310596466, 0.7442747950553894, 0.5, 0.0, 0.0, 0.5104166269302368, 0.0, 0.0, 0.0, 0.8333333730697632, 0.1666666716337204, 0.0, 0.0, 0.29109588265419006, 0.26369863748550415, 0.0, 0.0, 0.26886793971061707, 0.0, 0.0, 0.7366411685943604, 0.71875, 0.0, 0.8333333730697632, 0.0, 0.0, 0.33018869161605835, 0.0, 0.0, 0.5839694738388062, 0.15322580933570862, 0.7604166269302368, 0.0, 0.5, 0.0, 0.0, 0.5229007601737976, 0.3244274854660034, 0.3145161271095276, 0.5, 0.0, 0.0, 0.0, 0.42009133100509644, 0.7395833730697632, 0.0, 0.0, 0.0, 0.30645161867141724, 0.5, 0.0, 0.0, 0.75, 0.0, 0.0, 0.8333333730697632, 0.0, 0.1666666716337204, 0.0, 0.6770833730697632, 0.6145833730697632, 0.0, 0.0, 0.0, 0.5, 0.4236641228199005, 0.5, 0.0, 0.27099236845970154, 0.0, 0.6145833730697632, 0.21803653240203857, 0.0, 0.0, 0.0, 0.7452830076217651, 0.21875, 0.0, 0.4541984796524048, 0.0, 0.0, 0.0, 0.7442747950553894, 0.28538811206817627, 0.20091325044631958, 0.25, 0.0, 0.0, 0.5, 0.0, 0.0, 0.8333333730697632, 0.5, 0.0, 0.0, 0.5, 0.0, 0.0, 0.0, 0.3790322542190552, 0.8333333730697632, 0.6037735939025879, 0.0, 0.6415094137191772, 0.0, 0.0, 0.20161288976669312, 0.3230593800544739, 0.0, 0.0, 0.0, 0.4007633626461029, 0.0, 0.5, 0.4354838728904724, 0.5, 0.0, 0.0, 0.5645161271095276, 0.0, 0.4245283007621765, 0.0, 0.0, 0.0, 0.8333333730697632, 0.5729166269302368, 0.2358490526676178, 0.6335877776145935, 0.0, 0.5, 0.0, 0.0, 0.2822580635547638, 0.0, 0.0, 0.5, 0.625, 0.0, 0.0, 0.2728310525417328, 0.5877862572669983, 0.0, 0.5, 0.0, 0.0, 0.27419352531433105, 0.0, 0.0, 0.1666666716337204, 0.875, 0.6145833730697632, 0.572519063949585, 0.0, 0.0, 0.5, 0.17741934955120087, 0.0, 0.0, 0.0, 0.4791666865348816, 0.0, 0.25, 0.0, 0.0, 0.5, 0.37735849618911743, 0.0, 0.0, 0.27099236845970154, 0.0, 0.0, 0.5080645084381104, 0.5, 0.1179245263338089, 0.0, 0.1603773534297943, 0.4166666865348816, 0.0, 0.6666666269302368, 0.0, 0.0, 0.5520833730697632, 0.1458333432674408, 0.0, 0.0, 0.6770833730697632, 0.0, 0.0, 0.2983871102333069, 0.0, 0.0, 0.0, 0.8333333730697632, 0.5, 0.3206107020378113, 0.0, 0.0, 0.7395833134651184, 0.0, 0.0, 0.17741934955120087, 0.5, 0.6145833730697632, 0.3493150770664215, 0.0, 0.0, 0.7604166269302368, 0.0, 0.0, 0.0, 0.13584475219249725, 0.0, 0.15867578983306885, 0.0, 0.21917808055877686, 0.0, 0.25, 0.0, 0.0, 0.875, 0.5, 0.29770994186401367, 0.0, 0.0, 0.75, 0.0, 0.301369845867157, 0.0, 0.0, 0.11290322244167328, 0.5, 0.0, 0.0, 0.371004581451416, 0.32420092821121216, 0.6145833730697632, 0.3244274854660034, 0.0, 0.0, 0.5047169923782349, 0.0, 0.0, 0.3550228476524353, 0.0, 0.0, 0.8333333730697632, 0.0, 0.0, 0.3790322542190552, 0.8333333730697632, 0.6037735939025879, 0.0, 0.6415094137191772, 0.0, 0.0, 0.20161288976669312, 0.6666666269302368, 0.0, 0.0, 0.0, 0.5754716992378235, 0.47641509771347046, 0.4245283007621765, 0.24315068125724792, 0.4541984796524048, 0.0, 0.0, 0.5, 0.0, 0.0, 0.0, 0.0, 0.0, 0.1666666716337204, 0.6679389476776123, 0.5, 0.5, 0.0, 0.5660377740859985, 0.09677419066429138, 0.0, 0.0, 0.0, 0.19811320304870605, 0.0, 0.016129031777381897, 0.0, 0.0, 0.6458333730697632, 0.5, 0.0, 0.46875, 0.25, 0.0, 0.0, 0.0, 0.0, 0.375, 0.5, 0.5, 0.0, 0.0, 0.5, 0.5520833134651184, 0.2783018946647644, 0.0, 0.0, 0.0, 0.0, 0.04838709533214569, 0.016129031777381897, 0.0, 0.0, 0.8333333730697632, 0.0, 0.0, 0.5080645084381104, 0.5, 0.5, 0.7442747950553894, 0.0, 0.5, 0.0, 0.0, 0.6145833730697632, 0.0, 0.0, 0.25, 0.26255708932876587, 0.4270833134651184, 0.2358490526676178, 0.0, 0.0, 0.5, 0.0, 0.0, 0.34375, 0.0, 0.5, 0.0, 0.0, 0.24543379247188568, 0.2358490526676178, 0.8333333730697632, 0.0, 0.0, 0.189497709274292, 0.0, 0.0, 0.48473280668258667, 0.31392693519592285, 0.0, 0.0, 0.0, 0.0, 0.6297709941864014, 0.24315068125724792, 0.4354838728904724, 0.2641509473323822, 0.1666666716337204, 0.0, 0.0, 0.0, 0.5645161271095276, 0.0, 0.0, 0.25, 0.59375, 0.0, 0.0, 0.31392693519592285, 0.6458333730697632, 0.0, 0.0, 0.31603774428367615, 0.0, 0.4063926935195923, 0.0, 0.0, 0.6145833730697632, 0.0, 0.875, 0.0, 0.25, 0.0, 0.0, 0.13709676265716553, 0.3091602921485901, 0.0, 0.4166666567325592, 0.5, 0.0, 0.0, 0.0, 0.875, 0.5, 0.0, 0.75, 0.0, 0.0, 0.371004581451416, 0.5754716992378235, 0.6979166269302368, 0.20967741310596466, 0.0, 0.0, 0.0, 0.0, 0.8333333730697632, 0.0, 0.0, 0.8333333730697632, 0.3790322542190552, 0.6037735939025879, 0.0, 0.5, 0.0, 0.0, 0.26940637826919556, 0.875, 0.0, 0.4354838728904724, 0.2924528419971466, 0.0, 0.0, 0.0, 0.0, 0.8333333730697632, 0.0, 0.5, 0.0, 0.0, 0.8333333730697632, 0.1666666716337204, 0.6717557311058044, 0.5992366075515747, 0.3047945201396942, 0.0, 0.5047169923782349, 0.0, 0.0, 0.6354166269302368, 0.6221374273300171, 0.0, 0.0, 0.0, 0.75, 0.839694619178772, 0.0, 0.0, 0.0, 0.6354166269302368, 0.5520833134651184, 0.2568493187427521, 0.0, 0.0, 0.0, 0.375, 0.0, 0.0, 0.11290322244167328, 0.34375, 0.0, 0.405251145362854, 0.3066037893295288, 0.25, 0.0, 0.0, 0.4245283007621765, 0.0, 0.0, 0.0, 0.875, 0.37404578924179077, 0.0, 0.5, 0.0, 0.0, 0.0, 0.5080645084381104, 0.361872136592865, 0.35114502906799316, 0.27419352531433105, 0.3091602921485901, 0.0, 0.0, 0.5833333730697632, 0.0, 0.0, 0.6679389476776123, 0.25, 0.6666666269302368, 0.0, 0.0, 0.5954198837280273, 0.0, 0.0, 0.1666666716337204, 0.5, 0.0, 0.0, 0.23972603678703308, 0.0, 0.0, 0.7366411685943604, 0.8333333730697632, 0.349056601524353, 0.0, 0.0, 0.0, 0.0, 0.0, 0.6297709941864014, 0.8333333730697632, 0.5, 0.3206107020378113, 0.0, 0.0, 0.7291666269302368, 0.0, 0.0, 0.5305343866348267, 0.5, 0.24315068125724792, 0.2641509473323822, 0.0, 0.0, 0.20967741310596466, 0.0, 0.0, 0.37735849618911743, 0.0, 0.0, 0.1666666716337204, 0.0, 0.25471699237823486, 0.0, 0.6979166269302368, 0.0, 0.0, 0.6145833730697632, 0.0, 0.6770833730697632, 0.6832060813903809, 0.0, 0.0, 0.0, 0.5, 0.4236641228199005, 0.5, 0.0, 0.26886793971061707, 0.3015267252922058, 0.0, 0.0, 0.28244274854660034, 0.0, 0.37404578924179077, 0.0, 0.0, 0.7452830076217651, 0.21875, 0.0, 0.4541984796524048, 0.0, 0.0, 0.0, 0.5729166269302368, 0.5, 0.0, 0.0, 0.5, 0.40322577953338623, 0.388127863407135, 0.0, 0.0, 0.6450381278991699, 0.27511414885520935, 0.0, 0.0, 0.0, 0.6650943756103516, 0.19354838132858276, 0.0, 0.0, 0.0, 0.3790322542190552, 0.36872148513793945, 0.8333333730697632, 0.0, 0.0, 0.3778538703918457, 0.0, 0.71875, 0.0, 0.0, 0.4155251085758209, 0.26940637826919556, 0.23630136251449585, 0.5, 0.1495433747768402, 0.0, 0.0, 0.0, 0.0, 0.0, 0.0],
    "base_values": [0.5, 0.5, 0.5, 0.5, 0.5],
    "post_transform": "SOFTMAX",
}